tree
version=v4
num_class=1
num_tree_per_iteration=1
label_index=0
max_feature_idx=27
objective=binary sigmoid:1
feature_names=Column_0 Column_1 Column_2 Column_3 Column_4 Column_5 Column_6 Column_7 Column_8 Column_9 Column_10 Column_11 Column_12 Column_13 Column_14 Column_15 Column_16 Column_17 Column_18 Column_19 Column_20 Column_21 Column_22 Column_23 Column_24 Column_25 Column_26 Column_27
feature_infos=[0:3] [0:9] [1:7287] none [1:15] [0:17] [0:7] [0:5] [0:3] [0:3] [0:1] [0:8] [0:3] [0:1] none [0:19] [1:7289] [0:30] [0:30] [0:30] [0:30] [0:5] [0:8] [0:30] none [0:17] [0:20] [0:30]
tree_sizes=3398 3392 3393 3398 3422 3395 3421 3407 3417 3410 3418 3406 3411 3412 3425 3425 3424 3427 3452 3428 3418 3401 3439 3426 3434 3439 3427 3417 3426 3417 3438 3432 3440 3429 3471 3433 3421 3440 3439 3450 3448 3442 3440 3454 3426 3437 3415 3445 3443 3243 3440 3451 3451 3435 3459 3449 3429 3450 3429 3454 3435 3447 3450 3443 3454 2819 3409 3432 3438 3446 3442 3438 3449 3430 3420 3428 3442 3243 3441 3427 3432 3417 3445 3416 3442 3420 3450 3477 3471 3449 3436 3458 3443 3430 3453 3464 3441 3450 3466 3437 3451 3457 3478 3462 3445 3467 3441 3447 3456 3447 3454 3154 3463 3436 3464 3457 3493 3465 3465 3446 3484 3420 3483 3446 3467 3468 3481 3446 3478 3468 3441 3451 3474 3433 3455 3472 3465 3507 3492 3361 3476 3449 3453 3467 3462 3476 3477 3457 3479 3491 3466 3464 3443 3447 3451 3492 3452 3490 3451 3463 3459 3461 3471 3494 3495 3475 3480 3478 3466 3488 3482 3490 3473 3502 3457 3492 3488 2995 3503 3494 3466 3492 3478 3502 3478 3492 3484 3480 3465 3487 3463 3483 3480 3437 3474 3486 3479 3490 3482 3476 3484 3500 3517 3501 3493 3497 3476 3507 3501 3506 3503 3480 3486 3499 3469 3478 3474 3469 3480 3488 3493 3503 3472 3469 3501 3481 3501 3471 3497 3480 3480 3490 3482 3484 3498 3500 3503 3517 3487 3482 3512 3496 3502 3494 3503 3482 3495 3494 3510 3488 3519 3482 3504 3493 3518 3522 3493 3485 3494 3516 3496 3486 3505 3494 3504 3514 3498 3507 3484 3517 3509 3467 3488 3510 3491 3481 3479 3495 3541 3487 3495 3532 3498 3509 3501 3498 3494 3507 3527 3561 3494 3531 3522 3508 3543 3487 3502 3513 3517 3522 3505 3514 3504 3499 3507 3508 3495 3517 3540 3505 3503 3475 3487 3502 3526 3526 3510 3543 3499 3527 3535 3495 3481 3511 3496 3495 3496 3522 3502 3521 3540 3555 3538 3482 3549 3536 3492 3529 3503 3544 3517 3502 3526 3504 3496 3527 3504 3517 3492 3498 3504 3505 3536 3515 3500 3538 3506 3538 3552 3516 3515 3529 3524 3561 3554 3503 3543 3522 3522 3519 3507 3527 3523 3503 3512 3502 3536 3529 3522 3481 3510 3499 3502 3553 3492 3520 3540 3534 3537 3568 3532 3536 3524 3532 3553 3530 3528 3550 3543 3549 3525 3550 3528 3572 3538 3541 3544 3534 3530 3525 3509 3550 3557 3537 3544 3504 3530 3535 3553 3553 3551 3540 3558 3526 3538 3566 3556 3540 3531 3548 3504 3522 3528 3558 3530 3528 3527 3535 3515 3540 3521 3524 3566 3527 3560 3552 3527 3532 3537 3527 3548 3531 3538 3545 3559 3566 3528 3562 3554 3567 3525 3532 3542 3550 3539 3568 3530 3528 3528 3547 3549 3545 3550 3541 3541 3523 3544 3566 3542 3522 3533 3552 3542 3543 3551 3512 3542 3576 3530 3543 3535 3561 3532 3563 3531 3556 3566 3576 3542 3542

Tree=0
num_leaves=31
num_cat=0
split_feature=18 20 15 19 2 18 17 2 2 18 17 25 17 2 2 11 2 27 19 2 2 19 2 20 4 23 2 2 27 27
split_gain=2266.27 1749.76 485.508 459.038 247.289 192.598 191.875 441.818 296.788 189.223 165.554 129.506 97.6744 87.8963 87.1802 86.2669 85.35 80.8843 80.1972 80.0345 94.3114 79.1169 123.457 69.966 65.4383 119.862 67.2837 55.3066 54.8229 49.9507
threshold=21.500000000000004 6.5000000000000009 5.5000000000000009 1.0000000180025095e-35 55.500000000000007 16.500000000000004 29.500000000000004 87.500000000000014 910.50000000000011 13.500000000000002 6.5000000000000009 1.0000000180025095e-35 2.5000000000000004 57.500000000000007 5.5000000000000009 4.5000000000000009 4564.0000000000009 1.0000000180025095e-35 1.0000000180025095e-35 4870.5000000000009 5556.0000000000009 14.500000000000002 579.50000000000011 1.0000000180025095e-35 4.5000000000000009 1.0000000180025095e-35 329.50000000000006 28.500000000000004 13.500000000000002 1.5000000000000002
decision_type=2 2 2 2 2 2 2 2 2 2 2 2 2 2 2 2 2 2 2 2 2 2 2 2 2 2 2 2 2 2
left_child=1 2 5 12 15 11 7 18 17 21 -6 -1 -2 -5 -7 -3 24 -8 27 -10 -21 22 -9 -24 25 28 -26 -4 -12 -16
right_child=3 4 6 13 10 14 8 9 19 -11 16 -13 -14 -15 29 -17 -18 -19 -20 20 -22 -23 23 -25 26 -27 -28 -29 -30 -31
leaf_value=-0.58646959387751063 -0.20986318054081654 -0.35673693430214704 -0.3055852489576939 -0.33545070613175282 -0.21788662809167819 -0.55626053301057232 -0.44104333085384601 -0.25143010610055044 -0.58908060640365478 -0.22859129231671677 -0.25022224522283232 -0.29081323855762353 -0.47188796017269685 -0.18657198160075295 -0.25520699998069352 -0.55678253632237373 -0.21030193116068091 -0.24632779762813123 -0.57812715065587472 -0.28872128574033329 -0.56170469963664083 -0.52992041447382832 -0.32209179446187708 -0.47182604322103411 -0.43060823391245379 -0.58063985339696744 -0.25576710759333449 -0.52526148567784947 -0.51136602110773843 -0.57473817631321822
leaf_weight=915.95116716623306 15.7347155213356 38.383169680833817 19.787596791982651 46.488932222127914 210.74982607364655 20.026001572608948 50.303408712148666 55.071504324674606 264.39090171456337 82.964863657951355 26.462930649518967 14.304286837577818 93.931483566761017 372.8650768995285 31.469431042671204 46.727337002754211 37.191145777702332 35.999121874570847 159.96960780024529 20.264406353235245 30.277407139539719 40.052003145217896 43.866479635238647 101.56043654680252 35.522312313318253 34.568693190813065 57.217147350311279 24.555692404508591 10.728215128183363 5.0065003931522361
leaf_count=3842 66 161 83 195 884 84 211 231 1109 348 111 60 394 1564 132 196 156 151 671 85 127 168 184 426 149 145 240 103 45 21
internal_value=-0.437575 -0.478681 -0.522073 -0.250329 -0.311764 -0.570888 -0.470139 -0.430502 -0.522171 -0.35788 -0.279804 -0.581771 -0.432575 -0.202794 -0.392324 -0.466675 -0.345268 -0.358562 -0.545322 -0.567113 -0.451489 -0.403152 -0.377495 -0.42618 -0.376971 -0.448691 -0.321948 -0.426485 -0.325512 -0.301554
internal_weight=2942.39 2413.37 1915.82 529.02 497.551 986.757 929.063 527.828 401.235 323.515 412.44 930.255 109.666 419.354 56.5019 85.1105 201.69 86.3025 204.313 314.933 50.5418 240.55 200.498 145.427 164.499 71.7598 92.7395 44.3433 37.1911 36.4759
internal_count=12342 10123 8036 2219 2087 4139 3897 2214 1683 1357 1730 3902 460 1759 237 357 846 362 857 1321 212 1009 841 610 690 301 389 186 156 153
is_linear=0
shrinkage=1


Tree=1
num_leaves=31
num_cat=0
split_feature=17 2 19 17 16 16 15 17 16 19 25 23 16 23 16 16 27 16 19 16 20 23 16 23 16 16 16 26 16 19
split_gain=1424.47 1688.97 600.333 451.91 383.584 264.525 388.366 183.105 200.8 188.161 169.976 160.193 127.411 95.9594 164.577 121.586 121.519 94.3154 88.3107 81.8533 74.1534 68.7645 58.3028 56.4243 98.5231 55.4257 50.1534 68.1404 47.4523 50.0158
threshold=26.500000000000004 309.50000000000006 4.5000000000000009 5.5000000000000009 65.500000000000014 1324.5000000000002 5.5000000000000009 12.500000000000002 4666.5000000000009 13.500000000000002 1.5000000000000002 1.0000000180025095e-35 1813.0000000000002 1.0000000180025095e-35 70.000000000000014 29.500000000000004 1.0000000180025095e-35 6546.0000000000009 1.0000000180025095e-35 630.50000000000011 1.0000000180025095e-35 4.5000000000000009 6354.0000000000009 4.5000000000000009 1904.5000000000002 1168.5000000000002 4854.5000000000009 1.0000000180025095e-35 29.500000000000004 1.0000000180025095e-35
decision_type=2 2 2 2 2 2 2 2 2 2 2 2 2 2 2 2 2 2 2 2 2 2 2 2 2 2 2 2 2 2
left_child=1 2 3 4 28 6 -2 9 11 23 -4 -9 -11 14 15 -5 22 -10 26 -8 -17 -6 -16 -3 -25 -21 -7 -28 29 -1
right_child=5 7 10 13 21 18 19 8 17 12 -12 -13 -14 -15 16 20 -18 -19 -20 25 -22 -23 -24 24 -26 -27 27 -29 -30 -31
leaf_value=0.20419515821641593 -0.13179820141246174 0.20130326116462874 -0.13905873224193618 0.15593950064866546 0.19569258274242329 -0.15367846597111617 0.17895334444160638 0.080152451896012819 0.19995250550529381 -0.12014144300416052 0.173514610595464 -0.1583440690750908 0.21857535963038544 -0.1274034872086168 0.18963655995789772 -0.14100773772720007 -0.051337015260463914 -0.1464826672785137 0.12739558767438 -0.067743187820644132 0.20525551073815415 -0.079098116098546778 -0.13838024024428866 -0.15916675444825831 0.167870365730069 0.11086438297076345 -0.1119521465468695 0.088320166181868526 -0.1209364096203339 -0.13476537738758251
leaf_weight=9.7382505536079425 144.00820255279541 568.35153646767139 414.77798543870449 17.043712511658669 209.68708221614361 506.52792383730412 68.691613495349884 65.916569367051125 94.300426334142685 33.424250856041908 17.334169805049896 47.651439756155014 15.396462902426718 109.04084661602974 60.10800102353096 114.74783729016781 44.273572638630867 7.856035739183425 12.041762456297873 32.950250178575516 5.6739668101072303 9.0070992708206159 5.2353696525096884 11.599327474832533 34.157819896936417 34.661482661962509 147.53966088593006 18.43521411716938 57.480119585990906 6.4337046444416037
leaf_count=41 627 2305 1798 72 854 2201 281 272 388 143 71 203 63 469 250 495 186 33 50 139 24 38 22 48 139 147 635 77 243 28
internal_value=-0.000237407 0.0487388 -0.0349817 0.0258685 0.117802 -0.099636 -0.0177262 0.151622 0.0711418 0.177665 -0.126148 -0.0204258 -0.0110781 -0.0497198 -0.0150615 -0.087659 0.075949 0.172149 -0.133102 0.102876 -0.123137 0.184067 0.161666 0.192663 0.0833362 0.0241021 -0.137949 -0.0893117 -0.0787853 0.069351
internal_weight=2924.09 1959.24 1080.58 648.47 292.346 964.856 280.312 878.654 215.724 662.929 432.112 113.568 48.8207 356.123 247.082 137.466 109.617 102.156 684.545 136.303 120.422 218.694 65.3434 614.109 45.7571 67.6117 672.503 165.975 73.6521 16.172
internal_count=12342 8185 4591 2722 1204 4157 1194 3594 896 2698 1869 475 206 1518 1049 591 458 421 2963 567 519 892 272 2492 187 286 2913 712 312 69
is_linear=0
shrinkage=0.1


Tree=2
num_leaves=31
num_cat=0
split_feature=18 20 16 19 5 19 16 16 16 19 16 17 2 16 16 26 16 16 16 17 18 17 16 16 16 26 17 20 4 19
split_gain=1452.1 1256.81 501.57 182.62 161.616 268.413 315.126 269.955 248.059 229.665 156.03 234.313 199.117 138.882 124.243 124.132 102.837 102.608 93.6168 90.6219 87.6789 81.2721 77.8483 67.5451 64.2983 58.146 52.6538 49.3549 46.982 35.5626
threshold=20.500000000000004 6.5000000000000009 65.500000000000014 1.0000000180025095e-35 1.5000000000000002 5.5000000000000009 1324.5000000000002 84.500000000000014 4441.0000000000009 1.0000000180025095e-35 4552.0000000000009 1.5000000000000002 29.500000000000004 39.500000000000007 681.00000000000011 6.5000000000000009 4785.5000000000009 29.500000000000004 6078.0000000000009 3.5000000000000004 1.0000000180025095e-35 13.500000000000002 3171.0000000000005 643.50000000000011 849.00000000000011 1.0000000180025095e-35 13.500000000000002 1.0000000180025095e-35 5.5000000000000009 4.5000000000000009
decision_type=2 2 2 2 2 2 2 2 2 2 2 2 2 2 2 2 2 2 2 2 2 2 2 2 2 2 2 2 2 2
left_child=1 4 17 19 21 6 7 27 -7 16 11 13 -12 -3 15 -13 26 -2 -18 -4 -16 29 -11 28 -25 -26 -8 -6 -9 -1
right_child=2 10 3 -5 5 8 9 23 -10 22 12 14 -14 -15 20 -17 18 -19 -20 -21 -22 -23 -24 24 25 -27 -28 -29 -30 -31
leaf_value=0.04725854752193067 0.14231910206217299 -0.14098042264357774 0.17984910896065731 0.19417269353020933 -0.10577236686777247 -0.14093129299889429 0.16975638719087724 0.17389152453752296 0.2066193950504471 -0.14838317434776566 -0.12275263902827599 0.17364336063976399 0.1973872108191039 0.18814030535693885 -0.1419299354526026 -0.14486841732436781 0.046520437533518338 -0.14708201788537065 -0.14624398915843068 -0.048968223121842736 0.073100919963416708 -0.1333325898358414 0.1817154762824944 -0.15551486781525772 0.10639214005427154 -0.1446854043615011 -0.14146753397252532 0.20320207829511672 -0.041008923334336256 -0.10401302093836062
leaf_weight=38.219876796007156 14.108553469181059 13.660391658544539 24.844078361988068 459.6240499317646 90.679548993706703 378.94398160278797 4.7438136190176001 122.60445442795753 20.847667381167412 7.8389418572187415 20.921620547771454 43.841945186257362 192.84499786794186 116.60243819653988 80.057736277580261 15.968561202287672 71.509237676858902 66.911448299884796 37.636279180645943 51.529838442802429 24.063057169318199 525.02712796628475 40.528586491942406 12.634507909417151 78.986127197742462 9.5480632036924344 270.86772648990154 4.5711817741394034 10.713132977485655 24.760635107755661
leaf_count=164 58 61 100 1841 405 1712 19 494 84 33 93 179 774 469 344 67 304 293 165 212 100 2381 164 53 328 41 1228 19 46 111
internal_value=-0.000433119 -0.0375833 0.135397 0.170422 -0.0777607 -0.0560716 -0.021229 0.0523428 -0.122337 -0.0772307 0.100767 0.0532356 0.165629 0.152815 -0.0263388 0.0876213 -0.103077 -0.0955659 -0.0206741 0.0268274 -0.0920121 -0.120478 0.126294 0.109887 0.0476014 0.0780009 -0.135516 -0.0889872 0.156446 -0.0129097
internal_weight=2875.64 2258.62 617.018 535.998 1750.66 1162.65 762.862 329.737 399.792 433.125 507.961 294.194 213.767 130.263 163.931 59.8105 384.757 81.02 109.146 76.3739 104.121 588.008 48.3675 234.486 101.169 88.5342 275.612 95.2507 133.318 62.9805
internal_count=12342 9838 2504 2153 7751 5095 3299 1386 1796 1913 2087 1220 867 530 690 246 1716 351 469 312 444 2656 197 962 422 369 1247 424 540 275
is_linear=0
shrinkage=0.1


Tree=3
num_leaves=31
num_cat=0
split_feature=18 20 15 2 23 17 19 17 2 2 18 17 19 2 27 19 27 17 2 1 2 27 20 2 5 17 19 2 2 2
split_gain=1198.96 1048.72 310.043 303.078 133.224 116.576 112.666 100.404 194.107 179.479 74.6583 71.6114 67.928 64.7099 74.6294 62.7838 80.0049 57.488 57.369 45.8976 66.3716 43.5769 42.8721 40.5301 38.2421 35.4134 33.5458 32.3637 31.4011 30.4979
threshold=20.500000000000004 6.5000000000000009 5.5000000000000009 62.500000000000007 11.500000000000002 6.5000000000000009 1.0000000180025095e-35 29.500000000000004 87.500000000000014 910.50000000000011 16.500000000000004 2.5000000000000004 1.0000000180025095e-35 4870.5000000000009 1.0000000180025095e-35 14.500000000000002 1.0000000180025095e-35 3.5000000000000004 1889.5000000000002 6.5000000000000009 228.50000000000003 1.0000000180025095e-35 1.0000000180025095e-35 57.500000000000007 15.500000000000002 5.5000000000000009 4.5000000000000009 5469.5000000000009 6.5000000000000009 910.50000000000011
decision_type=2 2 2 2 2 2 2 2 2 2 2 2 2 2 2 2 2 2 2 2 2 2 2 2 2 2 2 2 2 2
left_child=1 2 10 11 5 -3 17 8 12 21 19 -2 23 -11 27 16 -10 -5 29 -1 -21 -9 -13 -4 -6 -19 -18 -15 -12 -7
right_child=3 4 7 6 24 18 -8 9 15 13 28 22 -14 14 -16 -17 26 25 -20 20 -22 -23 -24 -25 -26 -27 -28 -29 -30 -31
leaf_value=-0.12546438592332357 0.12612350074177214 0.15393219858300203 0.11665653315997607 0.16330563053170002 0.14846443870137907 0.040753976368452433 0.17898575067651196 -0.0049223814024730384 0.10595891603753965 -0.12866345640202417 -0.090841716452967014 -0.072438402178987171 -0.11975687978442361 0.21249007224741195 -0.10741600248593752 -0.07160534315396902 -0.033473562949070342 -0.099275701135594904 0.12632833210621369 -0.13349791368822922 0.17475479134159944 0.13671115315968793 0.13787526066305161 -0.10183361311157245 -0.14055303745319947 0.088423845199826004 0.1513967549335615 -0.055816631561287515 0.090250752120506289 -0.07058628298767361
leaf_weight=796.05458767712116 28.356842175126076 240.43187817931175 22.14247989654541 21.883132785558701 4.5556104183197013 125.77358554303646 415.64471401274204 49.698671042919159 174.12262000143528 232.20843181014061 14.615927740931509 92.199673369526863 126.719597697258 14.911922648549082 27.642837479710579 36.588553130626678 78.133830636739731 27.290422469377518 73.118073776364326 14.152698412537577 11.961472645401953 37.499745413661003 9.8899867981672269 12.480297267436979 29.127878412604332 14.664896249771116 10.209413990378378 5.7721484154462805 23.839064136147499 29.571230247616768
leaf_count=3789 114 971 92 88 19 529 1680 211 712 1109 66 409 597 61 125 168 335 112 301 64 49 151 40 57 136 61 41 26 98 131
internal_value=-0.000567973 -0.0350911 -0.0728258 0.12332 0.0915969 0.105419 0.16002 -0.029092 0.00204621 -0.0679764 -0.114826 -0.0117705 -0.0860424 -0.106839 -0.00149152 0.0496991 0.0668169 0.0356817 0.0539165 -0.12119 0.00893355 0.0568467 -0.0509244 0.0372507 -0.0983106 -0.0331368 -0.0106535 0.138495 0.0208634 0.0192435
internal_weight=2801.26 2191.33 1688.75 609.93 502.578 468.895 479.483 828.131 460.397 367.734 860.624 130.447 161.342 280.535 48.3269 299.054 262.466 63.8385 228.463 822.169 26.1142 87.1984 102.09 34.6228 33.6835 41.9553 88.3432 20.6841 38.455 155.345
internal_count=12342 9838 7751 2504 2087 1932 1941 3685 2002 1683 4066 563 746 1321 212 1256 1088 261 961 3902 113 362 449 149 155 173 376 87 164 660
is_linear=0
shrinkage=0.1


Tree=4
num_leaves=31
num_cat=0
split_feature=17 0 17 25 5 27 20 23 20 1 17 20 23 17 20 17 27 22 27 11 7 27 26 26 1 23 17 26 20 26
split_gain=859.317 683.602 310.709 143.947 139.943 91.7483 88.73 86.8836 77.8224 64.6387 58.1229 57.3545 98.7568 70.4548 50.9189 48.4842 37.6291 35.8164 33.1979 33.168 31.0396 27.7492 25.1706 48.7278 21.5605 19.4842 16.9956 15.3526 14.743 12.425
threshold=26.500000000000004 1.5000000000000002 3.5000000000000004 3.5000000000000004 1.5000000000000002 6.5000000000000009 1.0000000180025095e-35 25.500000000000004 1.0000000180025095e-35 1.0000000180025095e-35 29.500000000000004 1.0000000180025095e-35 1.0000000180025095e-35 21.500000000000004 2.5000000000000004 8.5000000000000018 3.5000000000000004 1.5000000000000002 1.5000000000000002 1.0000000180025095e-35 3.5000000000000004 1.5000000000000002 1.0000000180025095e-35 6.5000000000000009 3.5000000000000004 3.5000000000000004 1.5000000000000002 1.0000000180025095e-35 7.5000000000000009 1.0000000180025095e-35
decision_type=2 2 2 2 2 2 2 2 2 2 2 2 2 2 2 2 2 2 2 2 2 2 2 2 2 2 2 2 2 2
left_child=1 2 7 5 29 11 -3 8 26 10 -6 27 13 24 -14 -8 20 21 -15 -11 -16 -12 -7 -24 28 -5 -1 -4 -13 -2
right_child=4 6 3 25 9 22 15 -9 -10 19 17 12 14 18 16 -17 -18 -19 -20 -21 -22 -23 23 -25 -26 -27 -28 -29 -30 -31
leaf_value=0.12651834147916355 -0.12956566360674601 -0.11676472784547109 -0.0029516153619632939 0.17402315307525129 0.017955589290401329 -0.13750216292138004 0.11633092602591394 -0.10949755438960128 0.15667533781985657 0.1125838036681294 -0.059653438377110915 0.033022488667062026 -0.1336820893788617 0.059117016267196634 0.029686146373331602 -0.10315641986536957 0.12837136870049121 0.12856287772562966 -0.11592809470938713 -0.080249004805215435 -0.075910145783677344 -0.12145824772751419 0.056464084003943295 -0.14282368548247967 0.17408650775887718 0.024252801187864988 0.06723044323972921 0.15290556121156451 0.15138665740959123 -0.029134188735387062
leaf_weight=67.645970121026039 387.33286862075329 274.23464526236057 371.25453786551952 70.050481483340263 80.9198879301548 40.087501406669617 27.193729639053345 15.372383221983908 348.47404226660728 35.167484864592552 213.1211384832859 25.191596701741219 22.133857890963554 33.939841851592064 111.78581985831261 14.72453314065933 27.939750224351883 7.4725322723388663 14.705963924527166 11.041502505540846 35.960563912987709 112.95389558374882 27.493131175637245 20.616663187742233 88.777570888400078 10.299635604023932 187.50645236670971 5.4293063431978217 18.036672502756119 13.411374166607855
leaf_count=287 1956 1363 1659 286 341 196 112 75 1437 146 1000 111 106 140 478 70 116 31 64 51 164 567 113 89 365 44 815 22 73 65
internal_value=-0.000610966 0.037648 0.0651031 0.0283121 -0.0831177 0.016038 -0.096105 0.119871 0.125883 -0.0453737 -0.0578951 0.0273355 0.0547751 0.108013 0.00585931 0.038625 0.0240966 -0.0762954 0.00493046 0.0657831 0.00364711 -0.0813688 -0.0799145 -0.0301067 0.145677 0.155359 0.0833814 -0.000306276 0.0847153 -0.126285
internal_weight=2720.28 1858.85 1542.7 923.703 861.421 843.353 316.153 618.999 603.626 460.676 414.467 755.155 378.472 180.652 197.82 41.9183 175.686 333.548 48.6458 46.209 147.746 326.075 88.1973 48.1098 132.006 80.3501 255.152 376.684 43.2283 400.744
internal_count=12342 8185 6640 4026 4157 3696 1545 2614 2539 2136 1939 3298 1617 753 864 182 758 1598 204 197 642 1567 398 202 549 330 1102 1681 184 2021
is_linear=0
shrinkage=0.1


Tree=5
num_leaves=31
num_cat=0
split_feature=18 20 15 19 16 16 19 19 16 2 16 18 16 20 16 16 16 26 16 26 25 16 16 16 16 18 18 16 27 16
split_gain=881.847 710.753 263.867 202.713 116.055 240.473 269.87 175.642 112.451 126.91 103.997 102.573 87.5165 86.2893 85.857 76.3369 74.7039 73.4214 64.2827 74.5815 67.0449 54.3461 51.5223 54.0693 51.4329 51.8562 48.4775 46.5621 45.2167 68.5977
threshold=21.500000000000004 8.5000000000000018 5.5000000000000009 1.0000000180025095e-35 84.500000000000014 1324.5000000000002 1.0000000180025095e-35 6.5000000000000009 4552.0000000000009 29.500000000000004 59.500000000000007 16.500000000000004 4785.5000000000009 27.500000000000004 6078.0000000000009 123.50000000000001 2375.5000000000005 1.0000000180025095e-35 681.00000000000011 7.5000000000000009 3.5000000000000004 36.500000000000007 643.50000000000011 849.00000000000011 29.500000000000004 27.500000000000004 1.0000000180025095e-35 2065.0000000000005 1.0000000180025095e-35 5911.5000000000009
decision_type=2 2 2 2 2 2 2 2 2 2 2 2 2 2 2 2 2 2 2 2 2 2 2 2 2 2 2 2 2 2
left_child=1 2 11 24 -4 7 12 22 13 -10 -5 17 -7 18 28 -15 -8 -1 19 -3 -20 -13 -6 -24 -2 -26 -25 -22 -14 -30
right_child=3 8 4 10 5 6 16 -9 9 -11 -12 21 14 15 -16 -17 -18 -19 20 -21 27 -23 23 26 25 -27 -28 -29 29 -31
leaf_value=-0.11718391136604092 0.19750263394360362 0.1251111504821712 -0.10144535485732149 -0.13301855356588746 0.1405119361198944 -0.12259117417517354 -0.14486633715913863 -0.096409768597478906 -0.10728567861322885 0.16540574045659934 0.15604046705122177 -0.1099646982115897 0.13854373415311239 -0.10782090275003964 -0.13564160447714516 0.14859359523112245 0.15459949219275276 0.02993049736558805 -0.10180069714567429 -0.14218163062433839 -0.13062443303797919 0.099657805320390633 -0.12799584380700074 0.02310442325368707 -0.059753240788204647 0.14164241551649412 0.17192757277105741 0.15738693602448275 -0.12865135554403503 0.16442020654049744
leaf_weight=713.91850897669792 10.104728475213049 51.704273581504822 148.18933375179768 12.118399709463118 136.26179052889347 245.68779361248016 8.7173550724983198 55.279645010828972 18.220018848776817 174.84924252331257 402.78993019461632 17.418214932084084 32.197809547185898 12.737610578536986 35.103997498750687 82.914686113595963 65.820313513278961 35.23286260664463 75.64025005698204 12.131335422396658 6.8590164482593563 36.857001662254333 14.216003522276877 63.212938189506531 83.474474370479584 14.094570010900496 32.791393056511879 19.603314146399498 21.673391923308372 11.348015815019606
leaf_count=3779 41 212 715 54 556 1263 38 259 91 729 1705 84 132 65 168 349 270 159 330 54 30 153 61 269 360 59 133 81 94 49
internal_value=-0.00063232 -0.0292185 -0.0593319 0.115638 -0.0211492 -0.00455811 -0.0533832 0.0634383 0.0815375 0.139252 0.147298 -0.100625 -0.0905628 0.0385731 -0.0116909 0.113686 0.118122 -0.110234 -0.00514598 0.0729053 -0.0541783 0.0316126 0.0995329 0.048064 -0.00659201 -0.0295183 0.075185 0.0806965 0.056066 -0.026063
internal_weight=2651.17 2128.59 1673.93 522.582 870.5 722.31 420.549 301.762 454.66 193.069 414.908 803.427 346.011 261.59 100.323 95.6523 74.5377 749.151 165.938 63.8356 102.103 54.2752 246.482 110.22 107.674 97.569 96.0043 26.4623 65.2192 33.0214
internal_count=12342 10123 8182 2219 4007 3292 2014 1278 1941 820 1759 4175 1706 1121 443 414 308 3938 707 266 441 237 1019 463 460 419 402 111 275 143
is_linear=0
shrinkage=0.1


Tree=6
num_leaves=31
num_cat=0
split_feature=18 20 15 19 23 18 2 2 18 2 2 26 2 2 4 19 2 17 19 26 17 17 2 19 2 17 19 27 20 18
split_gain=745.714 601.919 231.39 174.498 106.852 90.0394 74.6945 177.498 142.618 110.336 82.7555 65.8784 65.3935 64.6028 66.7987 61.7105 55.9786 55.423 47.9898 44.1781 38.7187 40.0936 36.7831 34.9319 34.4888 33.8245 33.3502 44.4543 28.4371 26.7213
threshold=21.500000000000004 8.5000000000000018 5.5000000000000009 1.0000000180025095e-35 4.5000000000000009 16.500000000000004 83.500000000000014 579.50000000000011 11.500000000000002 4622.5000000000009 6094.0000000000009 1.0000000180025095e-35 1792.5000000000002 1314.5000000000002 4.5000000000000009 7.5000000000000009 796.00000000000011 9.5000000000000018 1.0000000180025095e-35 6.5000000000000009 2.5000000000000004 6.5000000000000009 69.500000000000014 1.0000000180025095e-35 57.500000000000007 7.5000000000000009 1.0000000180025095e-35 1.0000000180025095e-35 1.0000000180025095e-35 1.0000000180025095e-35
decision_type=2 2 2 2 2 2 2 2 2 2 2 2 2 2 2 2 2 2 2 2 2 2 2 2 2 2 2 2 2 2
left_child=1 2 5 20 17 11 18 15 9 13 26 -1 -6 23 -15 -8 -10 -3 25 -19 -2 28 -7 29 -5 -4 27 -11 -22 -9
right_child=3 4 6 24 12 22 7 8 16 10 -12 -13 -14 14 -16 -17 -18 19 -20 -21 21 -23 -24 -25 -26 -27 -28 -29 -30 -31
leaf_value=-0.11234801789705849 0.13630829475649037 0.13164960897452513 0.18137946825629025 0.054898157424998095 -0.06272155526656388 -0.043625490130231107 0.11155085973448464 -0.0082177808579723382 -0.11956401510038006 0.1188686241434382 -0.12362897325026721 0.026859938401996231 0.11366616513974784 -0.12425294043619861 0.17243621847467919 -0.058807742323859324 0.15785435628702438 0.069681482047210294 -0.10948645352555851 -0.11080075511561199 -0.08337435088979922 0.10199283481932053 0.12079612666883843 -0.11259420416815405 0.14899690660376749 -0.031313637551047789 0.16452367180875083 -0.044805215578490334 0.11940358733838595 0.15930407048919287
leaf_weight=672.38406316936016 15.303760036826132 224.56623893976212 8.0535448640584928 45.514090567827225 74.189666226506233 30.175967156887054 138.83275742828846 71.132115364074707 7.8148629963397971 30.917560711503029 26.303645312786102 35.437355011701584 28.184613391757011 210.75200805068016 7.0287431180477133 24.428381085395813 47.034361824393272 98.692283451557159 127.79376494884491 14.782195851206778 66.722552552819252 17.348334312438965 23.237405255436897 28.666709423065186 352.71562466025352 41.960699632763863 27.58868595957756 33.750103771686554 6.8215484023094168 9.9789934903383237
leaf_count=3779 66 975 33 195 351 140 580 319 32 128 133 159 122 1153 29 116 198 424 657 69 293 73 97 131 1564 188 115 154 28 41
internal_value=-0.000664022 -0.0275495 -0.0559912 0.108102 0.075881 -0.0959113 -0.0198309 -0.00438023 -0.0339004 -0.0526604 0.0298177 -0.10535 -0.0135305 -0.0825132 -0.113933 0.0858577 0.116895 0.102919 -0.0772018 0.0454077 -0.00577135 -0.0309166 0.0288113 -0.0197157 0.138407 0.00581938 0.0744242 0.0340656 -0.0632163 0.0140813
internal_weight=2548.11 2043.69 1603.27 504.426 440.415 761.235 842.037 664.229 500.968 446.119 118.56 707.821 102.374 327.559 217.781 163.261 54.8492 338.041 177.808 113.474 106.196 90.8924 53.4134 109.778 398.23 50.0142 92.2564 64.6677 73.5441 81.1111
internal_count=12342 10123 8182 2219 1941 4175 4007 3129 2433 2203 530 3938 473 1673 1182 696 230 1468 878 493 460 394 237 491 1759 221 397 282 321 360
is_linear=0
shrinkage=0.1


Tree=7
num_leaves=31
num_cat=0
split_feature=18 20 16 15 16 23 23 19 17 16 16 19 16 19 26 23 26 18 16 20 16 17 27 2 16 16 16 17 23 16
split_gain=633.851 534.493 263.118 198.148 96.4296 134.318 99.4626 89.2111 78.7652 77.934 72.9802 202.356 175.256 118.244 64.9708 55.255 54.7428 54.4515 54.3272 50.8437 50.232 48.4833 35.3431 39.7231 33.6382 32.77 32.0013 26.7312 26.1747 31.9117
threshold=20.500000000000004 8.5000000000000018 65.500000000000014 5.5000000000000009 4552.0000000000009 1.5000000000000002 10.500000000000002 1.0000000180025095e-35 1.5000000000000002 29.500000000000004 1324.5000000000002 1.5000000000000002 4037.5000000000005 1.0000000180025095e-35 7.5000000000000009 1.0000000180025095e-35 1.0000000180025095e-35 13.500000000000002 1122.0000000000002 1.0000000180025095e-35 1324.5000000000002 3.5000000000000004 1.0000000180025095e-35 4809.5000000000009 5532.5000000000009 5532.5000000000009 4054.0000000000005 7.5000000000000009 1.0000000180025095e-35 70.000000000000014
decision_type=2 2 2 2 2 2 2 2 2 2 2 2 2 2 2 2 2 2 2 2 2 2 2 2 2 2 2 2 2 2
left_child=1 3 9 16 5 14 -6 21 20 -2 11 28 -12 15 -3 22 17 -1 -19 -13 -7 -4 23 26 -25 -18 -14 -23 29 -5
right_child=2 4 7 10 6 8 -8 -9 -10 -11 12 19 13 -15 -16 -17 25 18 -20 -21 -22 27 -24 24 -26 -27 -28 -29 -30 -31
leaf_value=-0.11002469229089776 0.12263307042995684 0.11213250997165375 0.13602753926176978 -0.021678668780623113 0.14880104275627426 -0.09283527692509691 -0.10748547775923506 0.14017258898852095 -0.13520056736354788 -0.13138290456869328 -0.11757638820603072 -0.10406497713308982 0.14448902547190612 0.1519245947528263 -0.083338059841114476 0.12445341958478294 -0.059169769197950521 -0.058481669079127691 0.17245956160932413 0.030544155227029076 0.13477526032229656 -0.069378703471959582 -0.10603956545951483 0.15929124192498773 -0.099411826455827759 0.12823073026052267 -0.12831989089625034 0.11787400516559775 -0.10133009999847334 0.091166086436214933
leaf_weight=610.56063206493855 14.27208463847637 134.12162110209465 23.133991897106171 28.436137571930885 164.30501526594162 14.96180699765682 15.960045635700224 399.28327797353268 57.873842373490334 59.12438902258873 197.2694006562233 129.45856909453869 4.4223162978887585 47.676903769373894 18.714909479022026 18.803308665752411 19.985666453838348 45.796764254570007 12.022486031055449 35.254918217658997 23.974346503615379 41.370941296219826 62.953277722001076 18.6156419813633 5.9935799837112418 15.858256652951239 21.78619821369648 8.350915461778639 7.7679189890623084 190.69593733549118
leaf_count=3661 58 587 100 136 733 78 87 1841 260 293 1127 683 18 206 89 79 93 231 50 161 107 178 322 75 29 67 120 34 33 806
internal_value=-0.000647524 -0.0278921 0.0942807 -0.0565138 0.0701013 0.0296547 0.125643 0.121643 -0.0621171 -0.0810046 -0.0213779 0.00886568 -0.0526911 0.0185771 0.0878109 -0.0301562 -0.0948034 -0.101254 -0.00834592 -0.0752431 0.0471779 0.0195716 -0.0565707 0.00557528 0.0948625 0.024971 -0.0786687 -0.0362252 0.069985 0.0764906
internal_weight=2448.81 1903.27 545.536 1473.36 429.912 249.647 180.265 472.139 96.81 73.3965 769.134 391.613 377.521 180.251 152.837 132.574 704.224 668.38 57.8193 164.713 38.9362 72.8558 113.771 50.8177 24.6092 35.8439 26.2085 49.7219 226.9 219.132
internal_count=12342 9838 2504 7897 1941 1121 820 2153 445 351 3795 1819 1976 849 676 643 4102 3942 281 844 185 312 564 242 104 160 138 212 975 942
is_linear=0
shrinkage=0.1


Tree=8
num_leaves=31
num_cat=0
split_feature=17 2 19 17 16 15 16 16 23 19 17 27 23 16 27 16 16 19 20 2 19 16 26 19 16 16 16 16 21 17
split_gain=473.137 544.484 253.639 142.288 140.612 127.041 115.567 68.4156 108.303 106.06 100.689 67.2359 56.0917 71.4853 72.2362 66.8199 52.821 49.0484 44.1643 38.09 49.5889 37.4971 36.3586 35.6803 32.0632 29.6279 35.1958 35.1577 33.6268 29.4602
threshold=26.500000000000004 309.50000000000006 4.5000000000000009 5.5000000000000009 1324.5000000000002 5.5000000000000009 59.500000000000007 3113.0000000000005 1.0000000180025095e-35 6.5000000000000009 1.5000000000000002 2.5000000000000004 1.0000000180025095e-35 70.000000000000014 1.5000000000000002 29.500000000000004 6354.0000000000009 1.0000000180025095e-35 1.0000000180025095e-35 26.500000000000004 1.0000000180025095e-35 4854.5000000000009 1.0000000180025095e-35 1.0000000180025095e-35 6354.0000000000009 630.50000000000011 442.50000000000006 1168.5000000000002 1.0000000180025095e-35 3.5000000000000004
decision_type=2 2 2 2 2 2 2 2 2 2 2 2 2 2 2 2 2 2 2 2 2 2 2 2 2 2 2 2 2 2
left_child=1 2 3 6 5 -2 19 8 9 29 -10 -4 13 15 24 -5 -9 21 -17 20 -1 -6 -23 -16 -15 26 -7 -27 -29 -3
right_child=4 7 11 12 17 25 -8 16 10 -11 -12 -13 -14 14 23 18 -18 -19 -20 -21 -22 22 -24 -25 -26 27 -28 28 -30 -31
leaf_value=0.16059946262077307 -0.089942579890932739 0.13776395763419061 -0.10726244458801218 0.11562817988864056 -0.12118327555622227 -0.089487231701190093 0.1092280465477372 0.12898388919178502 0.10112788157384461 -0.06678155562601748 -0.13905498192729362 0.11122197277185626 -0.099369697021721479 0.13102830028592222 -0.11796410480322939 -0.10987895873953434 -0.1020939592073922 0.098657704793913878 0.15642036863640918 -0.11284343724950152 -0.12095845964347395 -0.078640750892264896 0.071460972436379014 0.12894268583840371 -0.1211697995378781 -0.062450639403412979 0.13266421648413451 0.11850012155857299 -0.14542518286975087 0.073313423712486087
leaf_weight=14.374344676733019 98.208153739571571 151.58784833550453 297.85651494562626 17.624350726604462 343.65813387930393 7.4030154794454566 190.1145793646574 348.34577833116055 27.257183894515038 39.195475772023201 44.927472174167633 13.998900577425955 84.4555853754282 65.690617308020592 25.92919933795929 88.600235477089882 9.4779413789510709 11.518523216247557 5.8294856846332541 36.0846176892519 9.6237899810075742 111.61123190820217 18.034714952111244 6.5902337282896033 4.6847960054874411 32.072321504354477 58.209668979048729 30.801836773753166 4.8156470805406562 141.44022054970264
leaf_count=61 627 738 1806 72 2201 31 898 1633 127 194 224 63 469 286 123 495 48 50 24 192 53 635 77 27 22 139 250 127 20 630
internal_value=-0.000651861 0.0292142 -0.02525 0.015639 -0.0682945 -0.00414004 0.0711568 0.0907207 0.0622847 0.0863672 -0.0482185 -0.0971307 -0.0308369 -0.00357423 0.0563219 -0.0585862 0.122596 -0.0988578 -0.0919725 -0.0491249 0.0473665 -0.103862 -0.0573733 -0.0655731 0.112777 0.0592724 0.106632 0.0124821 0.0798192 0.10701
internal_weight=2340.02 1623.69 861.457 549.602 716.333 231.511 250.197 762.232 404.408 332.224 72.1847 311.855 299.405 214.949 102.895 112.054 357.824 484.823 94.4297 60.0828 23.9981 473.304 129.646 32.5194 70.3754 133.302 65.6127 67.6898 35.6175 293.028
internal_count=12342 8185 4591 2722 4157 1194 1204 3594 1913 1562 351 1869 1518 1049 458 591 1681 2963 519 306 114 2913 712 150 308 567 281 286 147 1368
is_linear=0
shrinkage=0.1


Tree=9
num_leaves=31
num_cat=0
split_feature=18 20 16 7 17 16 19 16 17 23 23 16 26 16 16 20 19 16 16 16 5 16 17 17 16 16 17 20 16 5
split_gain=468.003 406.598 262.909 85.9959 112.966 106.125 82.164 77.482 108.857 81.2089 80.8762 69.2625 61.3578 57.3361 53.5735 65.732 50.7513 83.4181 48.7509 46.3036 46.1271 44.5014 35.9223 34.4553 34.0496 31.675 29.7232 29.3264 25.8949 39.6641
threshold=19.500000000000004 8.5000000000000018 65.500000000000014 4.5000000000000009 29.500000000000004 1324.5000000000002 1.0000000180025095e-35 4552.0000000000009 1.5000000000000002 1.0000000180025095e-35 11.500000000000002 350.50000000000006 6.5000000000000009 123.50000000000001 643.50000000000011 1.0000000180025095e-35 1.0000000180025095e-35 59.500000000000007 920.50000000000011 29.500000000000004 3.5000000000000004 2792.0000000000005 27.500000000000004 3.5000000000000004 4217.5000000000009 6126.0000000000009 6.5000000000000009 1.0000000180025095e-35 5044.0000000000009 1.5000000000000002
decision_type=2 2 2 2 2 2 2 2 2 2 2 2 2 2 2 2 2 2 2 2 2 2 2 2 2 2 2 2 2 2
left_child=1 3 19 4 11 20 23 8 13 12 -9 16 -10 -3 -13 18 17 -1 -16 -2 -6 22 -17 -4 -5 -23 -25 -18 -7 -30
right_child=2 7 6 24 5 28 -8 10 9 -11 -12 14 -14 -15 15 21 27 -19 -20 -21 -22 25 -24 26 -26 -27 -28 -29 29 -31
leaf_value=0.20605611447761241 0.0549032638134535 -0.085760942704644183 0.1204244007614742 -0.10871241463169906 -0.087455469375768397 -0.11803127532027236 0.12968808882589458 0.1352096890555694 0.088293534353916972 -0.12472878060945065 -0.11811845959170736 0.089352502564844241 -0.12409091268484002 0.12723420828633766 -0.08966684732117193 -0.13102778463789394 -0.11664601499729409 -0.049417239139153864 0.1022167167627704 -0.12227919362434805 0.044132016811418269 0.027843811593201498 0.032505232192297027 -0.079352480103222239 0.063585921880319779 -0.12622765389695131 0.070294239514587034 0.022265326271773717 -0.11976401658658764 0.015562427584636336
leaf_weight=15.780854791402815 18.416303753852844 13.895210176706312 21.616388529539108 275.79241137206554 37.142882496118546 268.9955471009016 376.81429371237755 150.79211223125458 52.575609773397446 57.305982902646065 12.985425993800161 80.420285001397133 17.279094055294991 92.695151776075363 15.379568189382551 59.607467874884605 101.35132586956024 52.65908120572567 71.572995290160179 64.26228004693985 87.344429731369019 89.032914593815804 16.811986088752747 35.761493623256683 11.343884050846098 14.666743963956831 19.843592703342438 17.507293447852135 43.362281084060669 41.921980977058411
leaf_count=70 82 78 100 1858 252 1877 1919 742 229 276 78 377 86 452 77 340 610 313 328 358 382 415 77 155 56 80 84 86 291 214
internal_value=-0.00068167 -0.0264119 0.0806291 -0.0534572 -0.0397011 -0.0749321 0.110474 0.0619913 0.0248496 -0.0375335 0.114529 -0.00807986 0.0347487 0.0989289 0.0183407 -0.00329586 -0.0569345 0.0116088 0.0676441 -0.0826281 0.00448662 -0.0377265 -0.095096 0.0162568 -0.101708 0.00505525 -0.0256502 -0.09617 -0.102772 -0.0538341
internal_weight=2234.94 1698.22 536.714 1300.69 1013.56 478.767 454.036 397.529 233.751 127.161 163.778 534.791 69.8547 106.59 347.492 267.072 187.299 68.4399 86.9526 82.6786 124.487 180.119 76.4195 77.2215 287.136 103.7 55.6051 118.859 354.28 85.2843
internal_count=12342 9644 2698 7703 5789 3016 2258 1941 1121 591 820 2773 315 530 1694 1317 1079 383 405 440 634 912 417 339 1914 495 239 696 2382 505
is_linear=0
shrinkage=0.1


Tree=10
num_leaves=31
num_cat=0
split_feature=17 19 16 16 17 16 15 27 23 16 16 19 20 17 16 23 23 16 19 27 16 23 19 25 19 5 16 16 16 16
split_gain=354.54 341.939 243.225 195.383 176.324 113.156 94.7854 66.297 65.4495 52.7583 44.2546 48.2872 42.8195 48.8026 37.9122 163.393 37.7134 36.5417 36.5304 35.7723 35.4678 32.4325 31.3244 28.5676 28.4247 26.6567 27.1856 33.9163 24.8057 30.2869
threshold=26.500000000000004 5.5000000000000009 1813.0000000000002 70.000000000000014 11.500000000000002 1324.5000000000002 5.5000000000000009 7.5000000000000009 4.5000000000000009 29.500000000000004 4169.5000000000009 1.0000000180025095e-35 1.0000000180025095e-35 1.0000000180025095e-35 4666.5000000000009 1.0000000180025095e-35 1.0000000180025095e-35 1904.5000000000002 2.5000000000000004 1.0000000180025095e-35 6354.0000000000009 8.5000000000000018 3.5000000000000004 1.5000000000000002 1.0000000180025095e-35 1.5000000000000002 6078.0000000000009 5044.0000000000009 630.50000000000011 442.50000000000006
decision_type=2 2 2 2 2 2 2 2 2 2 2 2 2 2 2 2 2 2 2 2 2 2 2 2 2 2 2 2 2 2
left_child=1 3 23 9 8 6 -2 14 20 22 -7 25 -11 -14 15 18 24 -10 -6 -19 -5 -18 -1 -3 -16 -12 27 -27 29 -8
right_child=5 2 -4 4 7 10 28 -9 17 12 11 -13 13 -15 16 -17 21 19 -20 -21 -22 -23 -24 -25 -26 26 -28 -29 -30 -31
leaf_value=0.099950239267125485 -0.082892017518734845 -0.1057201940182089 0.12121395862049805 0.10982100585826682 0.095011903694878469 -0.11757439159532571 -0.085274558013720539 -0.10792221569911363 -0.14722800780538189 -0.10031905142836171 -0.11202346064311955 0.17069951742965081 -0.10689287555318486 0.18491206113946984 -0.091307752123099467 -0.13082458169944636 0.13655142088233882 -0.10905795539901626 -0.080914141881558502 0.10280059823287586 -0.096943208151438531 -0.099254543807032858 -0.11279638372804762 0.10499180208624299 0.1301900502936463 -0.07934185679585215 -0.12224125515295965 0.060382706853135196 0.0081026139069651157 0.12073912200788872
leaf_weight=31.275691330432892 88.826688840985298 273.1799156665802 58.912425592541695 613.00781314074993 91.444340452551842 263.46958288550377 7.4522810727357855 42.606497943401337 13.379029676318167 111.52272047102451 65.91111995279789 8.3366575092077237 9.6901816278696078 11.501446604728697 18.431175857782367 61.899338111281395 61.266990646719933 10.41960848867893 12.754682719707487 25.777733445167542 7.6853488385677329 5.7232933044433585 7.9167644679546347 5.8289224803447715 7.2821843177080146 28.6298858076334 22.246224880218506 40.9967320561409 67.497121125459671 55.16361828148365
leaf_count=138 627 1844 302 3191 408 1960 31 256 67 682 468 37 63 48 92 363 291 61 65 129 37 36 49 29 34 178 134 186 286 250
internal_value=-0.00072072 0.0262717 -0.0619824 0.0523816 0.0697602 -0.062328 -0.00377616 0.00619971 0.0982904 -0.0456837 -0.0920907 -0.0512116 -0.0756778 0.0526759 0.0253307 -0.00334184 0.0761909 -0.0120536 0.0729129 0.0405235 0.107109 0.115242 0.0552388 -0.100959 -0.0260528 -0.0639377 -0.0286054 0.00261921 0.0504556 0.0952652
internal_weight=2130.04 1481.51 337.921 1143.58 971.678 648.53 218.94 301.409 670.27 171.907 429.59 166.121 132.714 21.1916 258.802 166.098 92.7036 49.5764 104.199 36.1973 620.693 66.9903 39.1925 279.009 25.7134 157.784 91.8728 69.6266 130.113 62.6159
internal_count=12342 8185 2175 6010 5030 4157 1194 1545 3485 980 2963 1003 793 111 1289 836 453 257 473 190 3228 327 187 1873 126 966 498 364 567 281
is_linear=0
shrinkage=0.1


Tree=11
num_leaves=31
num_cat=0
split_feature=18 20 16 19 7 16 19 19 23 16 23 2 16 23 16 26 26 2 16 2 20 26 19 1 16 18 2 2 16 18
split_gain=347.244 310.204 233.787 75.8693 67.1398 89.945 119.84 84.8937 76.0669 63.9165 79.7722 63.5307 48.8396 52.5054 44.5214 43.21 42.9576 37.0937 26.3238 25.6552 25.4004 36.8474 29.0912 40.8589 26.7187 22.1639 24.6698 24.9662 21.0066 34.8694
threshold=18.500000000000004 8.5000000000000018 65.500000000000014 1.0000000180025095e-35 4.5000000000000009 1324.5000000000002 1.5000000000000002 4.5000000000000009 1.0000000180025095e-35 4552.0000000000009 1.5000000000000002 29.500000000000004 4785.5000000000009 1.0000000180025095e-35 4263.5000000000009 5.5000000000000009 8.5000000000000018 287.50000000000006 4217.5000000000009 14.500000000000002 1.0000000180025095e-35 1.0000000180025095e-35 1.5000000000000002 1.0000000180025095e-35 59.500000000000007 26.500000000000004 1105.5000000000002 894.50000000000011 29.500000000000004 21.500000000000004
decision_type=2 2 2 2 2 2 2 2 2 2 2 2 2 2 2 2 2 2 2 2 2 2 2 2 2 2 2 2 2 2
left_child=1 4 28 25 5 7 12 8 20 10 16 -11 -7 -14 -8 19 -3 -15 -6 -12 22 -22 23 24 -1 26 27 -4 29 -2
right_child=2 9 3 -5 18 6 14 -9 -10 11 15 -13 13 17 -16 -17 -18 -19 -20 -21 21 -23 -24 -25 -26 -27 -28 -29 -30 -31
leaf_value=0.18441317884044367 -0.09349879729889575 0.088160539146671379 0.00093988406021214179 0.12032253374572928 -0.1030964197749831 -0.10705029835638623 -0.116620904098787 -0.090012518310887454 -0.11246630161602247 -0.0904401513934813 0.098154779659910971 0.12798736829760468 -0.062436384381092225 -0.11382914319712129 0.1439425654253888 0.11405962385229129 -0.090982396552706457 0.16235521846846446 0.054829275136981541 -0.10515245166976489 0.13054646653539942 -0.07909250528679404 -0.075094479757458782 0.11071493627142744 -0.00027308645606918938 0.10876285842667817 0.13269977000312419 -0.14852360043599552 -0.1103126298931225 0.13469617827695787
leaf_weight=7.2507684826850882 15.890977889299394 118.73419587314129 40.77742899954319 348.72420872747898 238.90453430265188 285.69003336876631 7.3140894025564185 89.797241061925888 38.002865768969059 14.087124541401861 6.0809445381164542 132.17783035337925 122.96835181862116 5.6732876598835018 33.194172397255898 11.78614968061447 14.254280626773832 18.609313637018204 10.44614817202091 63.940043717622757 47.886542677879333 9.417464613914488 26.66124652326107 51.411339089274406 154.76735863089561 17.734339252114296 8.710557818412779 14.388820469379423 61.240987613797188 10.095099806785582
leaf_count=35 97 599 178 1985 1846 2199 35 552 266 91 27 729 745 31 167 64 77 81 54 354 220 42 165 247 838 90 38 62 386 42
internal_value=-0.000776458 -0.025021 0.0698253 0.10006 -0.050441 -0.0376269 -0.0675603 -0.00421603 0.0189539 0.0557182 0.0208195 0.106479 -0.0829752 -0.0358586 0.0952196 -0.0564588 0.0684235 0.0958786 -0.0962878 -0.0863629 0.0360682 0.0953283 0.0215874 0.0339586 0.00907269 0.0130715 -0.0147626 -0.0399944 -0.0787829 -0.00314305
internal_weight=2026.62 1509.06 517.562 430.335 1147.99 898.644 473.449 425.195 335.398 361.061 214.796 146.265 432.941 147.251 40.5083 81.8071 132.988 24.2826 249.351 70.021 297.395 57.304 240.091 213.429 162.018 81.6111 63.8768 55.1662 87.2271 25.9861
internal_count=12342 9464 2878 2353 7523 5623 3258 2365 1813 1941 1121 820 3056 857 202 445 676 112 1900 381 1547 262 1285 1120 873 368 278 240 525 139
is_linear=0
shrinkage=0.1


Tree=12
num_leaves=31
num_cat=0
split_feature=18 20 16 15 19 16 23 23 16 19 16 16 26 26 26 18 18 19 27 2 2 21 20 16 20 16 16 16 16 18
split_gain=299.297 265.399 202.15 113.12 69.1824 57.3761 66.8051 56.4749 49.4947 102.161 96.8017 56.236 38.4185 36.8398 36.3005 23.9019 21.8683 27.8579 54.8505 48.1422 21.833 20.6219 20.4597 20.2557 28.0538 19.3491 45.0847 33.9284 18.7828 29.8235
threshold=18.500000000000004 8.5000000000000018 65.500000000000014 5.5000000000000009 1.0000000180025095e-35 4552.0000000000009 1.5000000000000002 10.500000000000002 1324.5000000000002 1.5000000000000002 4666.5000000000009 6078.0000000000009 1.0000000180025095e-35 5.5000000000000009 8.5000000000000018 1.0000000180025095e-35 4.5000000000000009 4.5000000000000009 1.5000000000000002 23.500000000000004 14.500000000000002 1.0000000180025095e-35 1.0000000180025095e-35 477.00000000000006 1.5000000000000002 867.50000000000011 1122.0000000000002 6354.0000000000009 29.500000000000004 21.500000000000004
decision_type=2 2 2 2 2 2 2 2 2 2 2 2 2 2 2 2 2 2 2 2 2 2 2 2 2 2 2 2 2 2
left_child=1 3 28 12 25 6 14 -7 9 21 15 -12 16 20 -3 -10 -1 18 19 -18 -8 -5 -11 24 -24 -4 -27 -28 29 -2
right_child=2 5 4 8 -6 7 13 -9 10 22 11 -13 -14 -15 -16 -17 17 -19 -20 -21 -22 -23 23 -25 -26 26 27 -29 -30 -31
leaf_value=-0.10119246085850116 -0.088554094406708861 0.082086846844957401 0.082862792433440746 0.057399326367803344 0.11604565730312531 0.12298925889302899 0.08872698009067792 -0.095329602373699918 -0.10691489569758883 -0.092417168823187734 0.06025628788612656 -0.10641591128334821 0.023891661851006177 0.10923705178243581 -0.085036317894690835 0.034720301527790952 -0.010056059554068362 -0.10407267550344952 -0.11343009689067428 0.22905226109021518 -0.098297226706680077 -0.1370476276823874 0.18563418596544703 -0.14442579468197719 -0.048125925321026747 -0.10506911678885084 0.14205867376458026 -0.10385861016200836 -0.10657553642818003 0.12603346988333083
leaf_weight=365.39404524862766 15.193116724491121 115.03840634226799 25.217799410223961 194.69623018056154 326.60119163990021 124.54880583286285 6.1562550216913214 12.352144032716749 154.82826101779938 81.946818485856056 88.954401887953281 25.15343052148819 31.576412260532379 11.152923867106436 13.818984776735304 12.441140577197073 23.349945694208145 50.418633237481117 25.517057754099369 12.100380823016165 61.745718687772751 4.6863176524639121 8.4893560260534322 5.3652516752481452 10.492639869451523 29.034914255142212 18.697551041841511 7.0144162476062766 57.28953929245472 9.7942063957452756
leaf_count=3038 97 599 120 899 1985 733 27 87 1240 555 433 167 159 64 77 69 148 406 209 57 354 20 41 23 59 128 85 35 386 42
internal_value=-0.00074567 -0.023697 0.0667837 -0.0477749 0.0956883 0.052711 0.0194333 0.102743 -0.0178207 0.0100333 -0.0480085 0.0229105 -0.0822632 -0.0525293 0.0636473 -0.0962366 -0.089329 -0.0498576 -0.00406706 0.0756045 -0.0802993 0.0521679 -0.0687509 0.0114075 0.0604772 0.0121359 -0.0213447 0.073594 -0.0754804 -0.00282967
internal_weight=1929.07 1440.22 488.843 1095.41 406.566 344.813 207.912 136.901 587.054 305.677 281.377 114.108 508.356 79.0549 128.857 167.269 476.78 111.386 60.9674 35.4503 67.902 199.383 106.294 24.3472 18.982 79.9647 54.7469 25.712 82.2769 24.9873
internal_count=12342 9464 2878 7523 2353 1941 1121 820 3506 1597 1909 600 4017 445 676 1309 3858 820 414 205 381 919 678 123 100 368 248 120 525 139
is_linear=0
shrinkage=0.1


Tree=13
num_leaves=31
num_cat=0
split_feature=18 20 16 15 19 16 17 2 23 27 16 19 16 16 16 22 25 16 18 18 19 27 2 17 17 17 17 16 23 16
split_gain=258.795 227.455 175.28 101.042 62.9337 51.6254 80.4352 50.2803 47.4288 49.4947 42.3505 85.3984 84.9824 47.6254 40.0849 38.1727 29.5943 26.9566 21.7283 19.8958 25.0936 47.3076 38.2603 21.5893 19.8641 27.5733 18.5282 25.7232 24.115 20.3381
threshold=18.500000000000004 8.5000000000000018 65.500000000000014 5.5000000000000009 1.0000000180025095e-35 4552.0000000000009 1.5000000000000002 29.500000000000004 1.0000000180025095e-35 5.5000000000000009 1324.5000000000002 1.5000000000000002 4666.5000000000009 6078.0000000000009 123.50000000000001 1.5000000000000002 1.0000000180025095e-35 196.00000000000003 1.0000000180025095e-35 4.5000000000000009 4.5000000000000009 1.5000000000000002 23.500000000000004 8.5000000000000018 3.5000000000000004 7.5000000000000009 8.5000000000000018 70.000000000000014 1.0000000180025095e-35 643.50000000000011
decision_type=2 2 2 2 2 2 2 2 2 2 2 2 2 2 2 2 2 2 2 2 2 2 2 2 2 2 2 2 2 2
left_child=1 3 -2 15 24 6 14 -7 9 -8 11 26 18 -14 -3 16 19 -11 -12 -1 21 22 23 -21 -4 -26 -5 -28 29 -29
right_child=2 5 4 10 -6 7 8 -9 -10 17 12 -13 13 -15 -16 -17 -18 -19 -20 20 -22 -23 -24 -25 25 -27 27 28 -30 -31
leaf_value=-0.09755382822707924 -0.072409142372945587 -0.078696779784566739 0.099410172017931508 0.14346488737027244 0.11216409026095103 -0.084564040829137918 0.11867375461874562 0.12010294980365609 -0.11141596591746761 0.06378164741148204 -0.10378298457107178 -0.065102516171574198 0.05454393067096535 -0.10265000989994498 0.1140744809554099 0.25081535039570335 0.050572735889116427 -0.11642094977919487 0.031269670654466668 0.13337738270893143 -0.10131740595634285 -0.11128192580970531 0.20253680495334558 -0.0689808716895359 -0.064979324971412192 0.076461465431590853 -0.098976369072385106 0.08961493251808475 -0.139537593761488 0.018842227002492051
leaf_weight=353.09760351479053 77.512249328196049 11.774062171578406 18.326108977198601 17.324228346347809 305.25327195227146 12.677073784172533 27.105246037244797 115.22249926626682 48.724745310842991 11.621975079178808 144.13486244529486 101.43857458233833 88.568741917610168 23.586751580238342 77.885954707860947 2.5400351732969275 15.786113098263739 24.12167052924633 12.537599205970762 6.5079913735389736 46.823787003755569 23.529985636472702 12.426645457744597 16.727197930216789 39.519095003604889 19.921126663684845 11.97032357752323 82.1881123483181 5.7017906159162512 80.638202592730522
leaf_count=3104 525 78 100 81 1985 91 137 729 276 54 1240 678 433 167 452 18 75 124 69 34 406 209 57 114 178 90 68 397 28 345
internal_value=-0.000763862 -0.0225028 0.0640337 -0.0453188 0.0917625 0.0498928 0.0181433 0.0993182 -0.0384141 0.0190405 -0.0167698 0.00910577 -0.0455016 0.0208704 0.0881711 -0.0791823 -0.0814707 -0.0576872 -0.0928457 -0.0861109 -0.0474433 -0.00385095 0.0681348 -0.00913718 0.0112735 -0.0170953 0.047294 0.0373239 0.0475319 0.0548944
internal_weight=1835.19 1374.66 460.532 1045.53 383.02 329.133 201.234 127.9 111.574 62.8489 568.089 299.261 268.828 112.155 89.66 477.439 474.899 35.7436 156.672 459.113 106.016 59.1918 35.6618 23.2352 77.7663 59.4402 197.823 180.498 168.528 162.826
internal_count=12342 9464 2878 7523 2353 1941 1121 820 591 315 3506 1597 1909 600 530 4017 3999 178 1309 3924 820 414 205 148 368 268 919 838 770 742
is_linear=0
shrinkage=0.1


Tree=14
num_leaves=31
num_cat=0
split_feature=18 20 16 19 7 17 16 16 16 17 23 23 16 16 16 20 16 19 16 18 20 16 2 16 5 17 19 16 2 16
split_gain=223.484 182.572 94.2008 61.1462 57.5343 75.5929 60.9016 48.8572 45.9956 69.4107 45.1608 40.998 38.8144 35.0395 31.8469 48.1022 35.0686 31.4217 40.2824 34.0852 29.693 27.9717 27.5849 35.8558 31.6546 24.6679 24.5483 23.4743 32.9883 23.0939
threshold=20.500000000000004 8.5000000000000018 65.500000000000014 1.0000000180025095e-35 4.5000000000000009 29.500000000000004 1324.5000000000002 350.50000000000006 4552.0000000000009 1.5000000000000002 11.500000000000002 1.0000000180025095e-35 29.500000000000004 123.50000000000001 643.50000000000011 1.0000000180025095e-35 789.50000000000011 1.0000000180025095e-35 196.00000000000003 6.5000000000000009 1.0000000180025095e-35 2792.0000000000005 4935.5000000000009 5500.5000000000009 3.5000000000000004 27.500000000000004 1.0000000180025095e-35 503.50000000000006 533.50000000000011 4054.0000000000005
decision_type=2 2 2 2 2 2 2 2 2 2 2 2 2 2 2 2 2 2 2 2 2 2 2 2 2 2 2 2 2 2
left_child=1 4 12 -4 5 7 27 17 9 13 -10 26 -2 -3 -9 16 -16 18 19 -1 -19 25 -8 24 -24 -17 -11 -7 -29 -6
right_child=2 8 3 -5 29 6 22 14 10 11 -12 -13 -14 -15 15 21 -18 20 -20 -21 -22 -23 23 -25 -26 -27 -28 28 -30 -31
leaf_value=0.17111700253228007 0.085825232699186127 -0.073823858819694069 0.00017613701043591259 0.1091914278157825 -0.093845880140758758 -0.11608743937443722 -0.10731803283890201 0.07832843947489164 0.1144388007880543 -0.028510843537409538 -0.10545299293388784 -0.10608898457503818 -0.10635748188387428 0.10971009712114176 -0.10849786164095505 -0.11263420845514427 0.088268760165192472 -0.10353914472206982 -0.094598318552681623 -0.010047772461710996 0.038038015466532918 0.0066244448558081329 -0.099970881331313224 -0.091721560932033624 0.13679181379019201 0.029980718422812604 0.10275340492694102 0.09634284093606145 -0.024516618591597303 0.052570216963219264
leaf_weight=17.264849483966827 13.434426560997961 11.382955908775328 64.147334486246109 259.02028673887253 198.91137980669737 14.250662311911581 193.10351376980543 74.271812334656715 109.724868029356 39.543450981378555 9.427681200206278 46.234711199998856 38.806013435125351 73.170635238289833 9.4468798935413343 49.25992414355278 73.700079269707203 84.950379826128483 22.743074610829353 23.832742258906364 17.355332016944885 92.857347548007965 7.415191218256953 35.779688283801079 16.816105648875237 15.509182453155516 21.00997419655323 33.431469604372978 64.802472025156021 10.77140888571739
leaf_count=78 58 78 312 1841 1873 100 1969 395 742 207 78 276 293 452 60 359 380 671 199 130 94 505 71 271 71 77 108 185 349 60
internal_value=-0.00073325 -0.0195085 0.0675029 0.0876197 -0.0393166 -0.0276415 -0.0618521 -0.0015747 0.0477996 0.017249 0.0963075 -0.0362323 -0.056251 0.0844279 0.0215535 0.00378843 0.0648891 -0.0452966 0.00971393 0.0683154 -0.079386 -0.0286477 -0.0889696 -0.0291368 0.0632478 -0.078548 0.0179628 -0.000585444 0.0171713 -0.0861107
internal_weight=1742.38 1366.97 375.408 323.168 1056.47 846.791 365.599 481.192 310.494 191.342 119.153 106.788 52.2404 84.5536 315.045 240.773 83.147 166.146 63.8407 41.0976 102.306 157.626 253.114 60.011 24.2313 64.7691 60.5534 112.485 98.2339 209.683
internal_count=12342 9838 2504 2153 7897 5964 3016 2948 1941 1121 820 591 351 530 1776 1381 440 1172 407 208 765 941 2382 413 142 436 315 634 534 1933
is_linear=0
shrinkage=0.1


Tree=15
num_leaves=31
num_cat=0
split_feature=17 2 19 16 17 16 11 16 23 20 16 23 19 16 16 16 7 19 25 2 15 16 2 16 20 16 19 15 16 16
split_gain=176.31 220.853 112.008 68.6891 64.1012 60.3693 39.0513 40.0894 62.6535 56.3651 38.2359 60.7646 48.2411 38.2317 38.1852 35.3158 35.2716 35.2177 34.6329 33.8709 30.164 29.4466 28.0656 50.1016 41.9212 26.1142 22.8636 20.2002 22.4494 20.2464
threshold=26.500000000000004 309.50000000000006 5.5000000000000009 1324.5000000000002 2.5000000000000004 442.50000000000006 2.5000000000000004 84.500000000000014 1.0000000180025095e-35 1.0000000180025095e-35 1813.0000000000002 1.0000000180025095e-35 5.5000000000000009 29.500000000000004 4169.5000000000009 4600.5000000000009 3.5000000000000004 1.0000000180025095e-35 1.5000000000000002 357.50000000000006 5.5000000000000009 254.50000000000003 874.50000000000011 920.50000000000011 3.5000000000000004 6354.0000000000009 1.0000000180025095e-35 1.0000000180025095e-35 6078.0000000000009 5044.0000000000009
decision_type=2 2 2 2 2 2 2 2 2 2 2 2 2 2 2 2 2 2 2 2 2 2 2 2 2 2 2 2 2 2
left_child=1 2 4 5 16 -2 7 9 -9 13 11 12 22 26 -5 -10 -1 27 -4 -7 -21 -8 -3 -24 -25 -12 -6 -16 29 -29
right_child=3 10 18 14 6 19 21 8 15 -11 25 -13 -14 -15 17 -17 -18 -19 -20 20 -22 -23 23 24 -26 -27 -28 28 -30 -31
leaf_value=0.12011185081202412 -0.10399613153331538 0.10328226444076179 -0.096551944003473542 -0.10867689424944482 0.10739688064471749 0.10385038198648716 0.074513396076449342 0.072467884074562561 -0.1204499834451922 0.15914645300010866 0.096816638232358102 -0.10356342597700451 -0.055777373356711214 -0.089532896162020176 -0.10516044376877701 0.12092357523881699 -0.017709978839590284 0.15713905642675338 0.085921025001798962 -0.10966707305930129 0.024196960023608549 -0.11960509448257606 -0.12368461275068124 0.10951647662667252 -0.11589663919182283 -0.084709076984798182 -0.1065329653345209 -0.065673100714257873 -0.11442481846892748 0.048110516378078755
leaf_weight=65.339823737740517 43.866852506995201 121.61078928411007 171.95146517455578 179.40021413564682 17.637910068035129 41.455649271607399 8.6386408656835538 117.43039700388908 30.445303060114384 12.02074448764324 283.44099495559931 26.038388922810555 32.698754236102104 91.774002566933632 43.96531617641449 6.6545186936855307 25.46222809702158 7.7159849405288687 10.31632377207279 19.918030798435211 85.20123316347599 46.716632030904293 16.571729153394699 45.345097050070763 9.178477466106413 7.4227479696273795 5.9293052703142157 23.700127460062504 19.03855837136507 41.648959472775459
leaf_count=441 391 810 1670 1960 77 238 41 669 254 53 1918 187 195 717 443 37 190 37 64 176 389 331 81 307 48 48 47 181 149 193
internal_value=-0.000739576 0.0208606 -0.0203922 -0.0498956 0.00759905 -0.00242975 -0.0125328 0.00265034 0.0367802 -0.0387238 0.0672389 0.0384492 0.0552393 -0.0605363 -0.0784515 -0.0751178 0.0816927 -0.0380986 -0.0858115 0.0284657 -0.00196205 -0.0885267 0.0742675 0.0238927 0.0701666 0.0919098 0.0514285 -0.0509594 -0.0218202 0.0064768
internal_weight=1658.54 1152.62 610.317 505.911 428.05 190.442 337.247 281.892 154.53 127.362 542.307 251.443 225.405 115.341 315.469 37.0998 90.8021 136.069 182.268 146.575 105.119 55.3553 192.706 71.0953 54.5236 290.864 23.5672 128.353 84.3876 65.3491
internal_count=12342 8185 4591 4157 2857 1194 2226 1854 960 894 3594 1628 1441 841 2963 291 631 1003 1734 803 565 372 1246 436 355 1966 124 966 523 374
is_linear=0
shrinkage=0.1


Tree=16
num_leaves=31
num_cat=0
split_feature=18 20 16 19 7 16 19 19 16 23 16 17 23 16 23 16 16 17 16 2 18 27 17 27 16 16 17 17 23 16
split_gain=173.358 145.198 118.676 52.2294 43.4208 52.079 77.5664 44.8119 44.2516 43.2109 40.4664 56.5558 35.908 33.7845 38.627 33.735 29.7056 27.5401 28.0113 25.8914 25.3736 25.0078 24.4524 23.1719 18.5005 17.367 16.0547 20.7712 14.2409 14.0485
threshold=18.500000000000004 8.5000000000000018 65.500000000000014 1.0000000180025095e-35 4.5000000000000009 1324.5000000000002 1.0000000180025095e-35 4.5000000000000009 4217.5000000000009 1.0000000180025095e-35 4552.0000000000009 1.5000000000000002 10.500000000000002 4785.5000000000009 1.0000000180025095e-35 681.00000000000011 123.50000000000001 8.5000000000000018 70.000000000000014 287.50000000000006 1.0000000180025095e-35 1.5000000000000002 29.500000000000004 1.5000000000000002 503.50000000000006 4217.5000000000009 3.5000000000000004 7.5000000000000009 1.0000000180025095e-35 29.500000000000004
decision_type=2 2 2 2 2 2 2 2 2 2 2 2 2 2 2 2 2 2 2 2 2 2 2 2 2 2 2 2 2 2
left_child=1 4 29 26 5 7 13 9 -8 17 11 16 -12 -7 -15 21 -3 -1 -19 -16 -17 -13 23 -20 -24 -6 -4 -28 -22 -2
right_child=2 10 3 -5 25 6 8 -9 -10 -11 12 15 -14 14 19 20 -18 18 22 -21 28 -23 24 -25 -26 -27 27 -29 -30 -31
leaf_value=0.1257290266496752 0.0020124808084748501 -0.069761103668795288 0.090983512959613322 0.10352969349565369 -0.090765797223138434 -0.098863225501894858 -0.074454560683549234 -0.072409639016083494 0.13431989428971142 -0.10220040872261422 0.11076333014258406 0.13013992525729129 -0.086140732989074931 -0.057056912476584336 -0.10328898186212457 -0.11826823418019113 0.1035625252808947 -0.063640403889167946 0.08848918522807081 0.14613045160628907 0.11592996699109462 -0.026643528344588809 -0.10692122698099618 -0.039070505063371758 0.01432478910774046 0.044710552385255384 -0.059654108287946317 0.066334823402734333 -0.08357566794401694 -0.095476588598461948
leaf_weight=24.926193252205849 21.772050634026527 10.905450910329817 16.678456813097 250.54929537326097 169.00335678458214 192.47043761610985 14.272132001817225 71.311674758791924 30.204995945096016 27.317173033952713 94.526867426931858 15.340626448392866 9.5222166106104833 101.68285117298365 4.675568267703059 45.744542837142944 65.119757547974586 35.586951903998852 82.419846676290035 16.458186984062195 7.8903474360704404 26.260285347700119 13.478737503290175 16.570631206035614 95.220661401748657 9.4435264021158201 38.264585539698601 18.671403408050537 5.0799722298979759 44.77109781652689
leaf_count=128 139 78 100 1985 1846 2157 74 552 180 266 733 86 87 737 31 293 452 272 411 79 46 139 100 102 534 54 178 90 27 386
internal_value=-0.000778577 -0.0198221 0.0569039 0.0818476 -0.0392955 -0.0283672 -0.0553452 -0.00183047 0.0671628 0.0153877 0.0429505 0.0135974 0.0920949 -0.0727849 -0.0314483 -0.0355879 0.0781172 0.0276995 0.0171818 0.0887761 -0.0838296 0.0328692 0.031269 0.066959 -0.00154735 -0.0833871 0.00765339 -0.0179059 0.0374021 -0.0640219
internal_weight=1576.14 1185.43 390.707 324.164 905.043 726.596 359.764 366.832 44.4771 295.52 280.39 176.341 104.049 315.287 122.817 100.316 76.0252 268.203 243.277 21.1338 58.7149 41.6009 207.69 98.9905 108.699 178.447 73.6144 56.936 12.9703 66.5431
internal_count=12342 9464 2878 2353 7523 5623 3258 2365 254 1813 1941 1121 820 3004 847 591 530 1547 1419 110 366 225 1147 513 634 1900 368 268 73 525
is_linear=0
shrinkage=0.1


Tree=17
num_leaves=31
num_cat=0
split_feature=18 25 16 15 19 16 16 16 16 16 26 16 19 16 17 26 7 17 17 18 19 17 23 21 22 23 23 23 19 16
split_gain=149.813 130.753 103.136 71.6411 47.6575 41.8838 77.3422 54.8271 38.4375 37.8734 37.5694 36.8864 32.8227 30.8731 30.2738 26.7135 25.3262 25.2436 25.1955 19.1074 28.8186 19.6553 18.5545 18.5894 18.0114 17.0846 23.7532 15.8046 14.5501 18.3285
threshold=18.500000000000004 1.5000000000000002 65.500000000000014 1.5000000000000002 1.0000000180025095e-35 643.50000000000011 442.50000000000006 4600.5000000000009 1904.5000000000002 1324.5000000000002 1.0000000180025095e-35 6339.0000000000009 5.5000000000000009 809.50000000000011 9.5000000000000018 6.5000000000000009 3.5000000000000004 2.5000000000000004 1.0000000180025095e-35 3.5000000000000004 4.5000000000000009 8.5000000000000018 1.0000000180025095e-35 1.0000000180025095e-35 1.5000000000000002 11.500000000000002 1.0000000180025095e-35 1.0000000180025095e-35 1.0000000180025095e-35 5044.0000000000009
decision_type=2 2 2 2 2 2 2 2 2 2 2 2 2 2 2 2 2 2 2 2 2 2 2 2 2 2 2 2 2 2
left_child=1 3 -2 19 -4 6 12 9 18 10 13 25 14 -7 16 -8 -5 -11 -3 24 21 -21 23 -15 -1 26 28 -23 29 -9
right_child=2 8 4 5 -6 7 15 11 -10 17 -12 -13 -14 22 -16 -17 -18 -19 -20 20 -22 27 -24 -25 -26 -27 -28 -29 -30 -31
leaf_value=-0.086648827051049246 -0.060646923727766824 0.085256486471966056 0.0072344938092356566 0.10621894179046686 0.1004815330960335 -0.10550108731668635 0.10187617986829636 -0.10265383983051386 0.10118660333066659 0.07928814197717611 -0.14173161604715778 -0.11174636386097905 -0.096867408540764297 0.067158518127854894 -0.036851709114935564 -0.11085692396140663 -0.099669125969545996 -0.095279891034621478 -0.11866950401559069 0.13458228623788074 -0.093071204855261658 0.031611673417457686 -0.12250605654047604 -0.1286833806292873 0.15536438473711411 -0.099119621731947521 0.10082949051473261 -0.10139879402193795 0.11606012878584389 0.023013730641057224
leaf_weight=238.83776162564754 63.562527254223824 9.1304758340120333 71.763758845627308 34.150612495839596 233.26118134707212 16.841471821069717 92.46605970710516 14.69792967289686 105.41622906178236 8.0018582195043546 17.609027303755283 17.767625883221626 43.631921909749508 68.470241166651249 64.749085314571857 5.4982892870903006 6.3731476888060561 161.13069484382868 14.292498737573622 10.81252311170101 37.925554528832436 26.064870409667492 5.5387249663472167 4.297117590904235 2.2376112043857566 7.5063027441501609 48.721246168017387 12.354311443865297 9.8646126389503461 43.612732723355293
leaf_count=2634 525 62 368 208 1985 99 573 88 805 53 92 152 380 312 482 33 61 1734 104 57 439 175 36 21 13 78 332 162 63 216
internal_value=-0.000742131 -0.0188319 0.0545197 -0.031073 0.0786385 -0.0123045 0.0203899 -0.031341 0.0756076 -0.0568102 -0.0117527 0.0192024 -0.0249996 0.0135265 0.00541831 0.0889369 0.0722185 -0.0866034 -0.0389414 -0.0692832 -0.0287173 0.0217236 0.0401335 0.0540058 -0.08377 0.0386469 0.048259 -0.0126473 0.00977518 -0.00985906
internal_weight=1496.59 1128 368.587 999.161 305.025 670.929 246.869 424.06 128.839 281.889 112.757 142.17 148.905 95.1476 105.273 97.9643 40.5238 169.133 23.423 328.233 87.1573 49.2317 78.3061 72.7674 241.075 124.403 116.897 38.4192 68.1753 58.3107
internal_count=12342 9464 2878 8493 2353 5013 1737 3276 971 2347 560 929 1131 468 751 606 269 1787 166 3480 833 394 369 333 2647 777 699 337 367 304
is_linear=0
shrinkage=0.1


Tree=18
num_leaves=31
num_cat=0
split_feature=18 25 2 19 16 5 19 16 16 16 18 16 17 16 27 16 23 17 16 27 16 23 25 18 20 20 5 17 19 16
split_gain=128.947 112.814 90.4947 51.173 92.8922 47.2727 39.2136 39.0687 37.9401 34.2536 35.3134 35.1198 33.705 33.351 24.2792 24.3275 24.0554 22.1857 19.6449 21.893 20.9919 18.8103 18.7111 17.5017 28.8216 17.4198 17.3674 15.2438 15.1085 14.4862
threshold=18.500000000000004 1.5000000000000002 62.500000000000007 4.5000000000000009 643.50000000000011 1.5000000000000002 1.0000000180025095e-35 1813.0000000000002 312.50000000000006 4600.5000000000009 1.0000000180025095e-35 5920.5000000000009 18.500000000000004 1904.5000000000002 1.0000000180025095e-35 5911.5000000000009 1.0000000180025095e-35 1.0000000180025095e-35 1324.5000000000002 1.0000000180025095e-35 1168.5000000000002 1.0000000180025095e-35 1.0000000180025095e-35 14.500000000000002 1.0000000180025095e-35 1.0000000180025095e-35 16.500000000000004 1.0000000180025095e-35 1.0000000180025095e-35 1122.0000000000002
decision_type=2 2 2 2 2 2 2 2 2 2 2 2 2 2 2 2 2 2 2 2 2 2 2 2 2 2 2 2 2 2
left_child=1 3 25 4 8 28 -4 -5 12 10 18 14 23 17 -11 16 -16 -3 19 20 -7 -12 -13 26 -25 29 -1 -20 -6 -2
right_child=2 13 6 7 5 9 -8 -9 -10 11 21 22 -14 -15 15 -17 -18 -19 27 -21 -22 -23 -24 24 -26 -27 -28 -29 -30 -31
leaf_value=0.081273481128548736 -0.059280929109647745 0.081474295919286677 0.012168961338572228 -0.091173010613351618 -0.095847223545042021 -0.055327447768922317 0.10550192302322706 0.087981861100071779 0.063031703641207207 0.097022802442755213 0.085828645063302123 -0.088746975621215363 -0.078851694473100475 0.097021817224748119 -0.099282871918331156 0.20059147342487563 0.107895457190538 -0.11511737223940025 0.093170636782796912 -0.14240761224554521 0.05701222524401714 -0.10672025050634858 0.05590568432803053 -0.08471554447051198 0.15119834171101224 0.085253516430793069 -0.094661611901702802 -0.095245527063530844 0.084986412587346821 0.058033154131683799
leaf_weight=46.817149460315704 76.952113844454288 8.6694936603307742 59.070467092096806 163.20460361242294 147.05509050935507 32.429671294987202 192.09008380770683 12.367679625749586 146.11229161918163 51.956833362579346 25.801067024469379 34.221087582409382 46.077802769839764 99.310184143483639 21.004164725542076 3.5838182419538489 6.6117846593260756 13.340288683772085 3.6978852897882453 11.836703725159166 32.10616684705019 5.3597805276513091 11.218767799437044 22.997871413826946 5.6377363651990882 10.927389107644556 5.5102657973766318 113.73379271477461 4.0345548614859572 11.352912887930868
leaf_count=266 617 62 304 1826 1813 153 1811 89 978 316 131 296 475 805 108 17 49 104 29 66 139 44 81 188 25 78 59 1323 22 68
internal_value=-0.000756975 -0.0179368 0.0518366 -0.0295102 -0.01845 -0.0438446 0.0836862 -0.0781262 0.0284556 -0.0237118 -0.0471699 0.0173729 -0.0114928 0.0725088 0.0557786 -0.0137853 -0.0476433 -0.0375058 -0.0630394 -0.023137 0.000577972 0.050421 -0.0525985 0.0273369 -0.0347345 -0.0288065 0.0613192 -0.0885758 -0.0904914 -0.0437175
internal_weight=1425.09 1074.7 350.393 953.377 777.804 504.651 251.161 175.572 273.153 353.562 224.965 128.596 127.041 121.32 83.1566 31.1998 27.6159 22.0098 193.804 76.3725 64.5358 31.1608 45.4399 80.963 28.6356 99.2324 52.3274 117.432 151.09 88.305
internal_count=12342 9464 2878 8493 6578 4587 2115 1915 1991 2752 1885 867 1013 971 490 174 157 166 1710 358 292 175 377 538 213 763 325 1352 1835 685
is_linear=0
shrinkage=0.1


Tree=19
num_leaves=31
num_cat=0
split_feature=18 25 15 2 16 16 23 2 27 18 16 18 16 16 16 16 26 16 16 17 16 17 27 16 22 17 18 17 20 17
split_gain=111.553 90.7321 52.8358 40.6407 79.726 46.5197 49.862 37.7261 35.2933 33.7294 36.1094 29.6311 28.9392 28.5622 38.4961 24.8987 25.8051 23.0769 30.9735 19.5597 18.8707 18.7057 17.0166 24.4449 15.2212 13.7313 39.5483 11.8475 11.4905 12.1624
threshold=21.500000000000004 1.5000000000000002 1.5000000000000002 83.500000000000014 643.50000000000011 4600.5000000000009 1.0000000180025095e-35 153.50000000000003 1.0000000180025095e-35 11.500000000000002 789.50000000000011 4.5000000000000009 1904.5000000000002 712.50000000000011 920.50000000000011 1324.5000000000002 1.0000000180025095e-35 65.500000000000014 29.500000000000004 1.0000000180025095e-35 1168.5000000000002 2.5000000000000004 1.5000000000000002 920.50000000000011 1.5000000000000002 3.5000000000000004 25.500000000000004 3.5000000000000004 1.0000000180025095e-35 3.5000000000000004
decision_type=2 2 2 2 2 2 2 2 2 2 2 2 2 2 2 2 2 2 2 2 2 2 2 2 2 2 2 2 2 2
left_child=1 2 11 -4 28 9 8 13 -7 15 -11 24 19 17 -15 16 20 18 -2 -3 -6 -17 23 -13 -1 -9 -27 -16 29 -5
right_child=7 12 3 4 5 6 -8 25 -10 10 -12 22 -14 14 27 21 -18 -19 -20 -21 -22 -23 -24 -25 -26 26 -28 -29 -30 -31
leaf_value=-0.080929243617530566 0.11882194567266553 0.077842801056350802 -0.050780684166728332 -0.036294110143535556 -0.039019060979811754 0.056307817156091261 0.12476715497264745 0.10567498597173344 -0.070872339051425357 -0.15057507196436443 0.12095432522136543 -0.016438397790148562 0.09298776817731777 -0.23589479235468561 0.10358751610419462 0.069992620042759746 -0.13103702658696942 0.10239326588939995 -0.093527475785587288 -0.11178486827467955 0.061453677741385659 -0.091292483584003853 -0.10931182911885802 0.13351494188327095 0.13596476237244112 0.092692337548653317 -0.10254679704590522 -0.060628226351039774 0.10202950873176556 0.063368354863574741
leaf_weight=217.69347066059709 9.4488250911235827 8.2359535321593302 168.16213673725724 14.741496317088602 36.790643058717251 40.297876089811325 38.422889351844788 115.69455923885107 45.296890899538994 5.3827186822891262 21.014824837446213 70.178049139678478 93.790682233870029 9.1083267405629176 6.9267813488841048 6.9081910029053679 14.523302391171454 29.857089534401894 19.134716250002384 12.440555080771444 36.037033408880234 127.92105183377862 13.975106492638586 11.83347626775503 2.4167212396860114 39.091172128915787 13.083256021142004 8.8866786584258062 63.346280865371227 58.047668658196926
leaf_count=2688 42 62 1496 105 197 245 291 1203 312 27 144 681 806 50 56 51 82 240 182 104 165 1594 176 76 13 331 65 50 467 341
internal_value=-0.000718209 -0.0143762 -0.0241111 -0.00831773 0.00579058 -0.0181587 0.0316988 0.0593059 -0.0110373 -0.0430604 0.0621118 -0.0577984 0.0695511 0.00420994 -0.0834355 -0.0557784 -0.0139514 0.0423609 -0.0216877 -0.036145 0.0108565 -0.0825743 -0.0112753 0.00654617 -0.0779437 0.0864792 0.0427264 0.0131861 0.0709929 0.0429661
internal_weight=1358.69 1107.46 992.99 676.893 508.731 372.595 124.018 251.231 85.5948 248.578 26.3975 316.097 114.467 83.3624 24.9218 222.18 87.351 58.4406 28.5835 20.6765 72.8277 134.829 95.9866 82.0115 220.11 167.869 52.1744 15.8135 136.135 72.7892
internal_count=12342 10123 9151 5517 4021 3108 848 2219 557 2260 171 3634 972 620 156 2089 444 464 224 166 362 1645 933 757 2701 1599 396 106 913 446
is_linear=0
shrinkage=0.1


Tree=20
num_leaves=31
num_cat=0
split_feature=18 25 19 1 16 19 16 16 20 16 19 18 16 26 27 22 16 2 2 16 16 19 26 5 2 2 2 16 2 16
split_gain=96.6663 77.9845 48.7852 70.3089 55.8834 44.5541 33.5816 55.5176 30.8687 30.848 28.6798 24.3749 21.3991 25.319 21.045 36.9443 20.9581 31.441 20.8727 18.1966 18.1046 16.1053 15.5038 15.2283 14.8627 16.0411 21.7701 12.9775 11.9906 28.205
threshold=21.500000000000004 2.5000000000000004 6.5000000000000009 1.0000000180025095e-35 39.500000000000007 1.0000000180025095e-35 1324.5000000000002 4509.5000000000009 1.0000000180025095e-35 84.500000000000014 1.0000000180025095e-35 11.500000000000002 643.50000000000011 6.5000000000000009 1.5000000000000002 1.5000000000000002 1634.0000000000002 365.50000000000006 62.500000000000007 29.500000000000004 630.50000000000011 3.5000000000000004 1.0000000180025095e-35 15.500000000000002 207.50000000000003 894.50000000000011 1081.5000000000002 6126.0000000000009 413.50000000000006 503.50000000000006
decision_type=2 2 2 2 2 2 2 2 2 2 2 2 2 2 2 2 2 2 2 2 2 2 2 2 2 2 2 2 2 2
left_child=1 2 3 6 -5 19 14 -8 -4 -10 22 12 13 21 28 -16 -14 23 -7 -2 -11 -6 -9 -18 -21 -26 -27 -24 29 -1
right_child=5 -3 8 4 11 18 7 10 9 20 -12 -13 16 -15 15 -17 17 -19 -20 24 -22 -23 27 -25 25 26 -28 -29 -30 -31
leaf_value=-0.0045029638493362884 0.12106646447039687 0.08006073574602704 -0.097925430283671122 -0.066406877919991156 0.095577129751350146 0.0047699463507195382 -0.093085665470762635 -0.044199024000713315 -0.11705596963597653 0.23995885982749293 0.12956267735777235 0.10072805909459551 -0.083522407548419025 -0.11193473544740062 -0.089194826495415699 0.095490789756919547 0.038890389128404319 0.083161190714254429 0.10262211769315209 -0.070328056538429412 0.027436460112740424 -0.053182009055761717 0.064854666579722289 -0.11236288785266338 0.10108472529031449 -0.1170521447517545 0.090425603687587702 -0.10079214236481598 -0.012824291127345053 0.11242642380409502
leaf_weight=56.685993358492851 8.8344172090291959 81.204210393130779 115.06184067577124 50.593103311955929 69.801870368421078 26.109672576189041 169.29689914360642 85.054591696709394 10.02543741464615 4.8410133719444302 12.936380818486212 64.085972115397453 24.078297354280949 6.6078313812613478 54.391028314828873 12.592554107308386 9.9480666071176547 36.875473529100418 134.18457428365946 33.687691569328308 13.78718616068363 7.4742184877395621 26.502748571336273 16.90034407377243 13.884044691920279 11.742542400956156 7.464107632637023 4.7833268567919722 96.62796489149332 31.365964375436306
leaf_count=411 41 753 1546 493 518 207 2477 782 90 27 92 453 171 43 544 69 67 307 1552 237 98 81 160 151 79 63 40 35 567 188
internal_value=-0.000644112 -0.0135226 -0.0213482 -0.0120591 0.0280627 0.0571183 -0.032953 -0.0555767 -0.0749656 0.0174251 -0.0061187 0.0485293 0.0285743 0.0643795 -0.00599852 -0.053581 -0.00597271 0.0241674 0.0868118 -0.00614153 0.0920773 0.0806934 -0.0221812 -0.0569354 -0.0245084 0.0228326 -0.0359372 0.0371915 0.0114553 0.0379445
internal_weight=1297.43 1061.52 980.318 836.603 286.365 235.907 550.237 298.574 143.715 28.6536 129.277 235.772 171.686 83.8839 251.664 66.9836 87.8022 63.7239 160.294 75.6128 18.6282 77.2761 116.341 26.8484 66.7784 33.0907 19.2067 31.2861 184.68 88.052
internal_count=12342 10123 9370 7609 2284 2219 5325 3546 1761 215 1069 1791 1338 642 1779 613 696 525 1759 460 125 599 977 218 419 182 103 195 1166 599
is_linear=0
shrinkage=0.1


Tree=21
num_leaves=31
num_cat=0
split_feature=17 2 19 17 23 16 16 16 27 16 2 5 16 16 16 2 19 5 16 16 2 16 1 27 17 16 16 16 27 23
split_gain=81.0681 99.6702 62.4006 42.4528 39.0245 34.7632 33.1526 36.176 32.1863 27.1452 25.3639 26.9615 24.7531 33.2423 20.1903 33.4075 34.0015 18.1032 24.7848 27.644 17.39 16.8362 19.2173 15.9098 15.7844 15.6254 15.5392 35.6619 18.055 15.0383
threshold=29.500000000000004 255.50000000000003 4.5000000000000009 12.500000000000002 1.0000000180025095e-35 867.50000000000011 70.000000000000014 29.500000000000004 1.0000000180025095e-35 503.50000000000006 153.50000000000003 3.5000000000000004 729.50000000000011 920.50000000000011 920.50000000000011 894.50000000000011 4.5000000000000009 1.5000000000000002 4854.5000000000009 5532.5000000000009 147.50000000000003 196.00000000000003 8.5000000000000018 3.5000000000000004 1.5000000000000002 789.50000000000011 6126.0000000000009 5532.5000000000009 1.0000000180025095e-35 4.5000000000000009
decision_type=2 2 2 2 2 2 2 2 2 2 2 2 2 2 2 2 2 2 2 2 2 2 2 2 2 2 2 2 2 2
left_child=1 2 4 14 6 9 7 -1 12 -2 -11 -12 -8 20 15 16 -3 -7 -19 -20 -14 22 -6 -21 -10 -18 27 28 -5 -16
right_child=5 3 -4 26 21 17 8 -9 24 10 11 -13 13 -15 29 -17 25 18 19 23 -22 -23 -24 -25 -26 -27 -28 -29 -30 -31
leaf_value=0.071333158068878896 -0.10357035601738458 0.096752255071445664 -0.077890503344684253 0.025763570596459309 0.15602255423740796 -0.10250286458045046 0.10688487431649617 -0.062640665202147991 0.10161304984547287 0.2436815242460981 -0.10366233029195482 0.0703491816008599 -0.22826039801396625 0.063123059020435468 0.099128601791646648 -0.11202375960507904 -0.055439716754816862 -0.068873561883706788 0.11333207586845809 -0.1053431451651039 0.042687328677876987 -0.086462938695907127 -0.091478660535573783 0.10758170531702363 -0.038290182801197017 0.14699473813014538 -0.1071144030456221 0.10550677275875074 -0.043048788583932136 0.0085632829099909057
leaf_weight=26.842170715332031 13.413579262793062 62.832580454647541 131.03891195729375 82.927258491516113 5.9295338839292508 84.939357288181782 79.890515096485615 72.49278699606657 8.6632605418562871 5.094353459775447 11.104841470718382 32.96833510696888 6.3958442211151105 28.20002668350935 163.80319130420685 12.792332634329794 27.995766486972574 97.715764574706554 17.718751281499863 14.251313447952272 3.0780763104557991 56.264625605195761 4.8416657447814941 3.6787941753864279 48.189514726400375 3.4177230298519126 9.931396082043646 34.698840275406837 68.897475242614746 20.854045763611794
leaf_count=141 122 651 1766 531 25 1423 635 690 86 30 113 195 36 196 1730 75 250 1230 84 118 31 661 60 24 323 30 91 277 529 189
internal_value=-0.000604245 0.0132285 -0.0195275 0.0448643 0.00307632 -0.0477595 0.0198577 -0.0260883 0.0460246 0.0177268 0.0522232 0.0251775 0.0756978 0.00850957 0.069002 0.0339948 0.0547824 -0.0665276 -0.0430228 0.0277817 -0.144559 -0.0647378 0.0464503 -0.0582812 -0.0155837 -0.0295598 0.00885682 0.01557 -0.00554057 0.0890019
internal_weight=1240.86 959.978 471.827 488.151 340.788 280.885 273.752 99.335 174.417 62.5811 49.1675 44.0732 117.564 37.6739 291.696 107.038 94.2461 218.304 133.365 35.6489 9.47392 67.0358 10.7712 17.9301 56.8528 31.4135 196.455 186.524 151.825 184.657
internal_count=12342 9003 4650 4353 2884 3339 2138 831 1307 460 338 308 898 263 2925 1006 931 2879 1456 226 67 746 85 142 409 280 1428 1337 1060 1919
is_linear=0
shrinkage=0.1


Tree=22
num_leaves=31
num_cat=0
split_feature=18 25 19 17 19 20 5 27 17 19 11 1 17 19 22 26 6 0 17 22 27 20 20 17 18 18 20 18 21 22
split_gain=71.3811 61.1349 39.9996 41.7187 38.2682 36.5422 28.139 23.1902 35.9855 25.1209 19.1715 18.7805 17.7799 16.8942 14.5911 14.5551 13.5331 12.082 14.1816 11.3299 11.1812 10.465 8.87403 12.6181 11.4641 7.17131 6.82168 8.3037 6.40244 5.59564
threshold=21.500000000000004 1.5000000000000002 14.500000000000002 29.500000000000004 1.0000000180025095e-35 1.0000000180025095e-35 1.5000000000000002 1.5000000000000002 1.5000000000000002 4.5000000000000009 4.5000000000000009 1.0000000180025095e-35 6.5000000000000009 1.0000000180025095e-35 1.0000000180025095e-35 1.0000000180025095e-35 2.5000000000000004 1.5000000000000002 1.5000000000000002 3.5000000000000004 4.5000000000000009 9.5000000000000018 1.0000000180025095e-35 5.5000000000000009 26.500000000000004 1.0000000180025095e-35 13.500000000000002 19.500000000000004 1.0000000180025095e-35 3.5000000000000004
decision_type=2 2 2 2 2 2 2 2 2 2 2 2 2 2 2 2 2 2 2 2 2 2 2 2 2 2 2 2 2 2
left_child=1 2 3 7 22 -4 19 9 -9 10 12 29 25 14 15 -10 -17 -6 -19 -5 -3 -7 23 24 -2 -1 27 -11 -14 -8
right_child=4 20 5 6 17 21 11 8 13 26 -12 -13 28 -15 -16 16 -18 18 -20 -21 -22 -23 -24 -25 -26 -27 -28 -29 -30 -31
leaf_value=0.038652566634764678 -0.087483125622547009 0.029119035735822064 -0.10532520769634868 -0.092256778718326687 0.091211511624201352 0.22068530600066849 -0.033701791925133139 0.097016087705938572 -0.11057021378055934 -0.062509500861692213 -0.05829340740751926 0.088143295350528617 0.026070716940097965 0.052885132509771643 0.060836427853248221 -0.12328468331767001 -0.0058666865513320073 -0.10696258143749578 0.096416586958417094 0.14786927034767175 0.0967595117219293 -0.0039392618340792314 0.083142165108768928 0.040436610856498488 0.024459127146240277 0.1187571674445087 0.04670626735236541 0.029045194991293155 -0.090543390281417946 0.078212431132433716
leaf_weight=19.361273996531963 28.360857628285885 51.885300844907761 77.841264579445124 96.376382626593113 127.79890521615744 3.5002810955047599 152.11216221004725 18.120583489537239 51.522416137158871 54.935395255684853 22.698898233473301 13.598226092755793 232.18006708100438 13.359863813966511 8.0526720434427244 12.065413564443586 39.909827623516321 6.3890013322234136 5.4108555018901825 1.1439819931983937 47.400630086660385 3.7832160070538521 8.3743558377027494 21.12297660857439 12.756469801068304 30.645390667021275 8.0644138157367689 11.41668716073036 3.8482887819409362 3.680663786828517
leaf_count=176 194 441 1258 1639 1665 19 1571 202 712 630 235 97 1681 76 43 80 240 39 55 5 531 25 51 109 106 231 64 98 42 27
internal_value=-0.000559011 -0.0119387 -0.020365 -0.0133179 0.0521633 -0.0851052 -0.0454401 0.00303183 -0.0311949 0.0158567 0.0284239 -0.020584 0.0354846 -0.0504171 -0.0631491 -0.0732857 -0.0349365 0.0823315 -0.0134559 -0.0879676 0.0620545 0.11762 -0.00779346 -0.02115 -0.0529974 0.0891086 -0.0359667 -0.046559 0.0237954 -0.0305758
internal_weight=1187.72 977.503 878.217 793.093 210.213 85.1248 266.911 526.181 143.031 383.15 308.734 169.391 286.035 124.91 111.55 103.498 51.9752 139.599 11.7999 97.5204 99.2859 7.2835 70.6147 62.2403 41.1173 50.0067 74.4165 66.3521 236.028 155.793
internal_count=12342 10123 9151 7849 2219 1302 3339 4510 1353 3157 2365 1695 2130 1151 1075 1032 320 1759 94 1644 972 44 460 409 300 407 792 728 1723 1598
is_linear=0
shrinkage=0.1


Tree=23
num_leaves=31
num_cat=0
split_feature=18 25 15 2 2 16 16 23 2 16 27 18 16 23 16 16 2 4 2 16 16 16 17 27 2 16 16 16 17 2
split_gain=61.144 53.4657 34.4471 29.3058 29.2482 47.5836 43.1412 50.6219 27.97 40.0152 25.4955 22.673 31.6912 25.4918 22.0501 23.5267 21.4903 39.1612 22.4275 15.8735 22.0698 15.1532 26.591 19.3763 13.4859 12.5322 21.2357 12.1599 11.8163 11.1167
threshold=21.500000000000004 3.5000000000000004 1.5000000000000002 194.50000000000003 83.500000000000014 643.50000000000011 4600.5000000000009 1.0000000180025095e-35 990.50000000000011 3221.5000000000005 1.0000000180025095e-35 1.0000000180025095e-35 789.50000000000011 1.0000000180025095e-35 712.50000000000011 1082.0000000000002 138.50000000000003 1.5000000000000002 24.500000000000004 65.500000000000014 29.500000000000004 1365.5000000000002 1.5000000000000002 1.0000000180025095e-35 4183.5000000000009 5578.0000000000009 6023.5000000000009 1168.5000000000002 15.500000000000002 4809.5000000000009
decision_type=2 2 2 2 2 2 2 2 2 2 2 2 2 2 2 2 2 2 2 2 2 2 2 2 2 2 2 2 2 2
left_child=1 2 8 14 -4 -6 11 10 9 16 29 21 -13 -14 19 -16 17 18 -1 20 -2 23 -23 27 -24 -12 -27 -7 -19 -8
right_child=3 -3 4 -5 5 6 7 -9 -10 -11 25 12 13 -15 15 -17 -18 28 -20 -21 -22 22 24 -25 -26 26 -28 -29 -30 -31
leaf_value=-0.0088387602607773157 0.10214270334308569 0.087464294903294229 -0.042346295071211876 0.081076634940571463 0.06269880823450584 -0.037301377220669563 -0.026583398514981434 0.1173294717155033 -0.10976409663272456 0.11122637832527885 -0.1338502419718185 -0.12727451251036823 0.099772186535195678 -0.11086589360792537 -0.15795283334428872 0.03503087890677805 -0.081030496607404495 -0.084689099079837335 0.1236406720003662 0.081999803281059436 -0.088514631479635592 0.079199093676938254 -0.1006932674000281 -0.12625811747768287 0.026272475152297459 0.057684194647651579 -0.10645971914000946 0.050783948503073544 0.071752831605938372 0.086167001383829642
leaf_weight=28.650266535580158 8.3471499532461184 50.999381959438324 151.52047780156136 118.63378731533885 118.27008058130741 29.741397507488728 12.630561895668505 47.275670271366835 55.391183279454708 17.365713875740767 14.914483129978178 9.9107736349105817 32.975543648004532 6.0505009293556204 13.531182847917082 10.638161003589628 83.808539725840092 50.893454145640135 21.88922018930316 32.479844458401203 16.437509447336197 9.4910318031907064 93.378257736563683 12.094872538000343 8.7771765142679197 15.253767237067224 14.372221127152441 31.002321973443031 4.5687720589339724 24.850263573229313
leaf_count=241 42 576 1525 1505 917 145 104 463 1052 146 79 74 233 53 74 87 1197 851 146 329 182 82 1475 88 91 98 163 143 40 141
internal_value=-0.000506416 -0.011139 -0.0168485 0.0495782 -0.00418505 0.00789937 -0.0100921 0.0360727 -0.0472226 -0.0300544 -0.0116115 -0.0357084 0.0244207 0.0651614 0.00326398 -0.0749939 -0.0434953 -0.0133387 0.0498252 0.0370141 -0.0228326 -0.0517041 -0.0747072 -0.0159107 -0.0896355 -0.0621226 -0.0228217 0.0077499 -0.0707594 0.0484681
internal_weight=1146.14 946.076 895.077 200.068 632.509 480.989 362.719 129.297 262.567 207.176 82.0213 233.422 48.9368 39.026 81.4338 24.1693 189.81 106.002 50.5395 57.2645 24.7847 184.485 111.646 72.8386 102.155 44.5405 29.626 60.7437 55.4622 37.4808
internal_count=12342 10123 9547 2219 5874 4349 3432 1048 3673 2621 585 2384 360 286 714 161 2475 1278 387 553 224 2024 1648 376 1566 340 261 288 891 245
is_linear=0
shrinkage=0.1


Tree=24
num_leaves=31
num_cat=0
split_feature=18 25 15 2 16 2 2 16 16 23 27 18 16 23 2 0 2 16 16 16 26 17 16 16 2 27 17 18 16 16
split_gain=52.3623 46.1676 29.6764 26.6031 33.8728 25.3673 24.1539 39.903 37.084 45.6862 21.6959 19.2734 27.4237 22.1179 18.8793 37.6379 19.968 18.5753 19.438 14.0613 26.9178 23.5065 13.6373 19.3744 12.5158 12.1108 10.9515 26.7258 10.9124 17.5427
threshold=21.500000000000004 3.5000000000000004 1.5000000000000002 990.50000000000011 3221.5000000000005 194.50000000000003 83.500000000000014 643.50000000000011 4600.5000000000009 1.0000000180025095e-35 1.0000000180025095e-35 1.0000000180025095e-35 789.50000000000011 1.0000000180025095e-35 138.50000000000003 1.5000000000000002 24.500000000000004 712.50000000000011 1082.0000000000002 1365.5000000000002 1.0000000180025095e-35 1.5000000000000002 65.500000000000014 29.500000000000004 4183.5000000000009 1.0000000180025095e-35 3.5000000000000004 25.500000000000004 5489.5000000000009 6023.5000000000009
decision_type=2 2 2 2 2 2 2 2 2 2 2 2 2 2 2 2 2 2 2 2 2 2 2 2 2 2 2 2 2 2
left_child=1 2 3 4 14 17 -4 -8 11 10 -10 19 -13 -14 15 16 -1 22 -19 20 25 -21 23 -2 -23 -9 -7 -28 -12 -30
right_child=5 -3 6 -5 -6 26 7 8 9 -11 28 12 13 -15 -16 -17 -18 18 -20 21 -22 24 -24 -25 -26 -27 27 -29 29 -31
leaf_value=-0.008850520522182416 0.097283635008718783 0.08380166971394809 -0.038863330018907988 -0.10906416042446572 0.10342307552097951 0.099525850716433412 0.058033728832555066 0.033093302094721277 0.044413359816457859 0.1153732543979855 -0.13077313367801813 -0.12212969396611735 0.094000880033669382 -0.10762595610412749 -0.077131293533521592 -0.074677377351099167 0.11221360014228168 -0.14393842184151176 0.032173350780549226 0.075950932329578461 -0.12620904207167277 -0.098636185614645225 0.078051261346844258 -0.085961387698863578 0.023668449648495384 -0.11935954827113049 0.085683383168499327 -0.091130251314467392 0.045722028613920669 -0.10467454136275565
leaf_weight=30.384272251278162 7.9579174518585214 48.101796768605709 148.82681768760085 50.431455627083778 16.908600836992264 74.00471693277359 115.24397183209658 51.239400394260883 36.979227520525455 43.481105126440525 13.302353575825689 9.3659859448671323 31.632895585149527 5.6596913412213317 79.518685676157475 49.401665791869164 23.50256947055459 13.464344114065172 10.519977308809755 8.9769447073340398 15.712196391075848 86.185023341327906 30.847473029047251 15.320845350623131 8.8732620850205404 4.8053087443113318 27.253108780831099 11.326553165912626 16.15626156330109 13.231243930757044
leaf_count=255 42 576 1525 1052 146 1125 917 238 245 463 74 74 233 53 1197 872 151 74 87 82 111 1475 329 182 91 27 315 65 103 163
internal_value=-0.00051837 -0.0105348 -0.0159036 -0.0448334 -0.0281515 0.0469773 -0.00397978 0.0073454 -0.00967579 0.0341773 -0.011018 -0.0339975 0.0227613 0.0613896 -0.0408179 -0.0123898 0.0450336 0.0030703 -0.0684965 -0.0491059 -0.0147529 -0.0724343 0.0354501 -0.0218917 -0.0870921 0.0181587 0.0771445 0.032782 -0.0589517 -0.0232079
internal_weight=1098.62 907.921 859.819 250.147 199.716 190.695 609.672 460.845 345.601 123.15 79.6691 222.451 46.6586 37.2926 182.807 103.289 53.8868 78.1106 23.9843 175.792 71.7569 104.035 54.1262 23.2788 95.0583 56.0447 112.584 38.5797 42.6899 29.3875
internal_count=12342 10123 9547 3673 2621 2219 5874 4349 3432 1048 585 2384 360 286 2475 1278 406 714 161 2024 376 1648 553 224 1566 265 1505 380 340 266
is_linear=0
shrinkage=0.1


Tree=25
num_leaves=31
num_cat=0
split_feature=20 19 18 25 16 19 16 19 18 16 2 5 27 19 19 20 23 16 2 16 16 23 23 2 26 16 19 19 27 2
split_gain=47.4713 46.5097 41.2754 21.5804 20.4676 89.4169 40.3764 35.9791 34.6684 31.1295 23.4427 19.4652 16.6241 16.6833 13.4815 15.9607 16.1383 12.8796 12.79 18.1821 12.4118 68.9405 42.3338 30.6561 19.2998 18.135 15.0899 12.4505 11.9301 11.7595
threshold=1.0000000180025095e-35 14.500000000000002 14.500000000000002 5.5000000000000009 84.500000000000014 1.0000000180025095e-35 1324.5000000000002 1.0000000180025095e-35 6.5000000000000009 29.500000000000004 3949.0000000000005 3.5000000000000004 1.5000000000000002 5.5000000000000009 8.5000000000000018 25.500000000000004 5.5000000000000009 5532.5000000000009 894.50000000000011 1209.5000000000002 4619.5000000000009 1.0000000180025095e-35 1.0000000180025095e-35 29.500000000000004 6.5000000000000009 196.00000000000003 1.5000000000000002 1.0000000180025095e-35 3.5000000000000004 23.500000000000004
decision_type=2 2 2 2 2 2 2 2 2 2 2 2 2 2 2 2 2 2 2 2 2 2 2 2 2 2 2 2 2 2
left_child=1 4 3 14 7 6 18 8 -1 -10 -8 -12 13 -4 15 20 -17 -13 -6 -20 21 24 27 -24 26 -23 -2 -22 -19 -16
right_child=2 -3 12 -5 5 -7 10 -9 9 -11 11 17 -14 -15 29 16 -18 28 19 -21 22 25 23 -25 -26 -27 -28 -29 -30 -31
leaf_value=0.16329906612865497 0.056388963696303231 -0.096241671284043748 0.10643473205419324 0.10200793392822241 0.023500532962520554 0.073176014540901724 -0.095287873912322962 -0.093675428058608401 0.083038375545056775 -0.10389292604679179 -0.099569195919705963 0.061846545549274101 -0.082439514856769772 -0.085376669356662035 -0.077606938918400259 0.092599560977299794 -0.030135094498989042 -0.084689351775942723 -0.097758938521129324 0.038144169218321165 -0.083709229375139749 0.11253070249525308 -0.084648861125434946 0.11571786265583239 -0.097434448398882434 -0.11623772618913822 -0.041812231889010225 0.092889881856512174 0.097416192186401462 0.13530075242525172
leaf_weight=11.544606506824492 78.356270257383585 67.033666402101517 79.258401956409216 22.326605960726738 124.74231346324086 123.06302665919065 91.595782663673162 65.708333227783442 13.914167225360869 21.275766931474209 18.685338787734509 27.234114661812782 4.8155508637428275 4.0858609564602366 2.5614086687564841 30.568526100367308 15.612647004425524 14.592929117381574 22.607531003654003 16.156034007668495 31.419642373919487 2.8890689909458152 8.6107760518789274 40.1073212698102 10.974817126989363 65.090277377516031 18.712306886911392 3.7144796177744857 3.7714552655816069 11.635241746902464
leaf_count=56 506 1284 1103 324 910 1338 1964 857 70 237 425 238 43 31 16 383 155 129 135 90 228 13 106 427 89 864 165 33 24 99
internal_value=-0.000537329 -0.0181993 0.0249471 0.00914487 -0.0086152 0.00109853 -0.0268155 -0.0465102 0.0203768 -0.0297278 -0.0630602 -0.016384 0.0855614 0.0961306 0.00237348 -0.00218422 0.0513469 0.0191089 0.00791198 -0.0415819 -0.0118574 -0.0268932 0.0196508 0.0793134 0.0227785 -0.105025 0.037225 -0.0629847 -0.0441913 0.0943081
internal_weight=1052.66 621.925 430.739 342.579 554.891 442.449 319.385 112.443 46.7345 35.1899 155.88 64.2838 88.1598 83.3443 320.253 306.056 46.1812 45.5985 163.506 38.7636 259.875 176.023 83.8522 48.7181 108.043 67.9793 97.0686 35.1341 18.3644 14.1967
internal_count=12342 7757 4585 3408 6473 5253 3915 1220 363 307 2780 816 1177 1134 3084 2969 538 391 1135 225 2431 1637 794 533 760 877 671 261 153 115
is_linear=0
shrinkage=0.1


Tree=26
num_leaves=31
num_cat=0
split_feature=20 17 19 17 16 19 18 16 16 16 16 16 16 27 16 5 16 18 16 16 27 27 16 27 16 11 18 22 16 16
split_gain=40.9283 51.5571 41.5635 32.9327 53.783 31.8403 29.1867 27.2898 23.4301 20.899 19.5819 23.6528 55.5265 30.0523 16.9199 17.0279 16.8761 12.5793 18.9136 12.4244 12.2848 12.0121 11.4285 12.8347 10.8173 10.2088 10.1783 9.96795 9.82039 15.6277
threshold=1.0000000180025095e-35 8.5000000000000018 14.500000000000002 29.500000000000004 84.500000000000014 1.0000000180025095e-35 6.5000000000000009 29.500000000000004 1324.5000000000002 4854.5000000000009 6354.0000000000009 920.50000000000011 867.50000000000011 1.0000000180025095e-35 5500.5000000000009 3.5000000000000004 503.50000000000006 1.5000000000000002 187.50000000000003 610.50000000000011 3.5000000000000004 1.0000000180025095e-35 77.500000000000014 5.5000000000000009 5651.5000000000009 4.5000000000000009 23.500000000000004 6.5000000000000009 681.00000000000011 84.500000000000014
decision_type=2 2 2 2 2 2 2 2 2 2 2 2 2 2 2 2 2 2 2 2 2 2 2 2 2 2 2 2 2 2
left_child=2 17 3 4 5 6 -1 -8 16 -10 11 12 13 -6 15 -11 -5 18 -2 21 -16 -18 -3 28 -4 -13 -7 -25 29 -24
right_child=1 22 24 8 10 26 7 -9 9 14 -12 25 -14 -15 20 -17 19 -19 -20 -21 -22 -23 23 27 -26 -27 -28 -29 -30 -31
leaf_value=0.15100494515073273 -0.085235862545066488 0.11146755662011382 -0.10307703030826701 -0.10531005335194527 0.067557784884801395 -0.10029666945343621 0.077384415742115936 -0.10173159494018043 -0.095212204697462596 -0.089023729218155948 -0.10585458814102461 0.093306801000209966 -0.14697513223464762 -0.11462294165164258 -0.097327479644936432 0.10240455413040113 -0.0056851966518120453 0.091530649746160986 0.053101416711572515 -0.012553858940734864 0.076773412300837562 0.11946050645640748 -0.094667680366029475 -0.066128674862212425 0.081772259368234637 -0.074422543457216092 0.072528187526613025 0.13277021195341923 -0.013119738009476323 0.068796700899743699
leaf_weight=11.328402012586592 10.165341682732103 6.6809357404708853 59.377813313156366 12.117832969874142 81.705463409423828 58.220678672194481 13.531143024563788 19.659589901566505 81.77028015255928 5.5016848780214813 7.593156360089778 86.315978139638901 16.380020070821047 9.2544538564980012 20.736985016614202 16.192319594323635 13.145936571061613 83.141073498874903 91.265058372169733 53.28236087039113 4.1938066035509101 17.123656004667282 6.0888138078153125 48.077118430286646 2.6261913776397696 3.0752143263816825 2.9244619235396376 1.7446891516447056 126.29940270259976 34.732353940606117
leaf_count=56 100 30 1258 122 735 825 70 237 2108 126 43 916 102 94 314 83 128 1170 1112 291 28 139 85 681 26 24 32 8 1154 245
internal_value=-0.000555542 0.0238064 -0.0172511 -0.00817275 0.0129305 -0.0447254 0.0194292 -0.0285823 -0.0372963 -0.0650398 0.0428193 0.0490639 0.0171458 0.0479774 -0.0112356 0.052074 0.00022495 0.0627748 0.0385405 0.0165955 -0.0662093 0.0666666 -0.00849317 -0.012682 -0.0940741 0.0867771 -0.0909967 -0.0566881 0.000696237 0.042734
internal_weight=1004.25 408.195 596.057 534.053 309.989 105.664 44.5191 33.1907 224.065 128.395 204.324 196.731 107.34 90.9599 46.6248 21.694 95.6698 184.571 101.43 83.552 24.9308 30.2696 223.623 216.942 62.004 89.3912 61.1451 49.8218 167.121 40.8212
internal_count=12342 4585 7757 6473 3134 1220 363 307 3339 2659 1914 1871 931 829 551 209 680 2382 1212 558 342 267 2203 2173 1284 940 857 689 1484 330
is_linear=0
shrinkage=0.1


Tree=27
num_leaves=31
num_cat=0
split_feature=20 19 1 11 1 16 2 27 16 16 19 19 2 16 16 16 27 16 2 5 16 23 16 16 2 16 23 2 2 16
split_gain=34.9643 37.5083 36.2687 25.78 19.9613 42.8335 18.9377 21.2317 17.621 31.7257 19.2915 16.4135 15.6391 14.5258 50.7636 16.8517 11.1847 12.621 18.5664 10.8566 9.91669 9.28551 24.1188 14.8976 12.1992 8.81915 18.9853 35.6675 19.752 17.163
threshold=1.0000000180025095e-35 14.500000000000002 2.5000000000000004 2.5000000000000004 1.0000000180025095e-35 84.500000000000014 395.50000000000006 18.500000000000004 1324.5000000000002 4169.5000000000009 1.0000000180025095e-35 1.0000000180025095e-35 28.500000000000004 920.50000000000011 867.50000000000011 6354.0000000000009 3.5000000000000004 5500.5000000000009 4870.5000000000009 3.5000000000000004 5651.5000000000009 1.0000000180025095e-35 4600.5000000000009 254.50000000000003 1596.5000000000002 5532.5000000000009 1.0000000180025095e-35 4564.0000000000009 1202.5000000000002 6546.0000000000009
decision_type=2 2 2 2 2 2 2 2 2 2 2 2 2 2 2 2 2 2 2 2 2 2 2 2 2 2 2 2 2 2
left_child=1 4 25 21 8 11 7 -5 -1 -10 16 12 -6 14 -7 -15 17 18 -11 -20 -3 -4 23 -23 -25 26 28 -28 -2 -27
right_child=2 20 3 6 5 13 -8 -9 9 10 -12 -13 -14 15 -16 -17 -18 -19 19 -21 -22 22 -24 24 -26 29 27 -29 -30 -31
leaf_value=-0.001610270466148268 0.03123243801642759 -0.10215624111700544 0.087641313577724311 -0.098366464929172767 0.092979437837503467 0.056769323509528805 0.091389084268479304 0.041466567961660206 -0.096925799598831103 -0.08268485263082645 0.11359296450515609 -0.084160783685756746 -0.068590186422641183 0.098875255618000368 -0.14074567261483448 -0.09008718571620733 0.10028560608460853 -0.093490453554224792 -0.079096744430343605 0.10812586194130827 0.079593939260821339 0.13418872173006044 0.10552837774435433 -0.07957195237538793 0.089145261869962578 0.085757832248639032 -0.10383009498828065 0.10183600153471478 -0.070678996198624527 -0.095808203119763541
leaf_weight=159.56467766314745 75.331085599958897 54.195639815181494 103.49661570042372 25.257625095546246 12.136756304651501 66.752511564642191 13.326244842261074 17.760707404464483 70.474583595991135 13.041400495916607 11.013858482241629 44.546697564423084 10.06303161755204 55.58857436478138 15.119442507624624 4.3801851123571387 5.4161788783967486 23.178416099399328 3.1388518884778032 13.77372670173645 2.4640167951583853 4.192557796835902 26.282587613910437 22.883131470531229 4.3514013327658168 19.995159614831213 45.15641750395298 9.4735601060092431 24.334544271230698 6.0135381147265425
leaf_count=1243 547 1258 1415 283 83 669 166 188 1947 253 114 698 125 680 101 24 46 338 81 71 26 19 404 222 51 207 711 113 179 80
internal_value=-0.00058508 -0.016568 0.0220911 0.0494853 -0.00787943 0.0158284 -0.00864363 -0.041004 -0.0243829 -0.0501358 -0.0020304 -0.0497533 0.0199413 0.0468217 0.0190357 0.083822 -0.0253232 -0.0397435 0.00352268 0.0709028 -0.093009 0.0697304 0.0366634 -0.022407 -0.0504126 -0.0110527 -0.0201709 -0.0669754 0.00589462 0.0417845
internal_weight=962.704 564.849 397.855 217.551 508.189 208.587 56.3446 43.0183 299.602 140.037 69.5624 66.7465 22.1998 141.841 81.872 59.9688 58.5486 53.1324 29.954 16.9126 56.6597 161.206 57.7097 31.4271 27.2345 180.304 154.296 54.63 99.6656 26.0087
internal_count=12342 7757 4585 2748 6473 2380 637 471 4093 2850 903 906 208 1474 770 704 789 743 405 152 1284 2111 696 292 273 1837 1550 824 726 287
is_linear=0
shrinkage=0.1


Tree=28
num_leaves=31
num_cat=0
split_feature=19 17 16 16 16 23 19 2 16 19 23 2 26 18 16 16 18 2 19 17 19 16 2 27 16 15 23 16 18 16
split_gain=31.3367 45.9664 30.1388 18.0978 25.8594 45.3191 29.0502 27.3594 26.1433 27.2893 24.2499 24.0232 23.745 22.0526 28.7258 18.2283 17.4924 22.9182 16.4557 13.5693 17.2706 16.2889 11.6893 12.8227 11.5063 17.494 10.2303 11.6291 10.2183 16.5245
threshold=24.500000000000004 3.5000000000000004 59.500000000000007 6354.0000000000009 4509.5000000000009 1.0000000180025095e-35 1.0000000180025095e-35 910.50000000000011 84.500000000000014 1.0000000180025095e-35 1.0000000180025095e-35 31.500000000000004 5.5000000000000009 1.5000000000000002 920.50000000000011 196.00000000000003 6.5000000000000009 28.500000000000004 3.5000000000000004 24.500000000000004 14.500000000000002 503.50000000000006 4183.5000000000009 1.5000000000000002 5489.5000000000009 2.5000000000000004 5.5000000000000009 1904.5000000000002 4.5000000000000009 307.00000000000006
decision_type=2 2 2 2 2 2 2 2 2 2 2 2 2 2 2 2 2 2 2 2 2 2 2 2 2 2 2 2 2 2
left_child=1 2 -1 4 5 7 10 8 9 16 24 -12 19 22 -15 -7 -3 -18 26 20 -10 -21 -9 -24 -6 -26 -4 -28 -20 -30
